digraph Tree {
node [shape=box] ;
0 [label="X[6] <= 0.339\ngini = 0.5\nsamples = 201470\nvalue = [100735.0, 100735.0]"] ;
1 [label="X[4] <= 0.644\ngini = 0.499\nsamples = 154791\nvalue = [77303.717, 85566.235]"] ;
0 -> 1 [labeldistance=2.5, labelangle=45, headlabel="True"] ;
2 [label="X[2] <= 0.781\ngini = 0.471\nsamples = 48198\nvalue = [23928.81, 39249.741]"] ;
1 -> 2 ;
3 [label="X[16] <= 0.384\ngini = 0.496\nsamples = 40698\nvalue = [20305.561, 24216.01]"] ;
2 -> 3 ;
4 [label="X[3] <= 0.101\ngini = 0.492\nsamples = 35697\nvalue = [17793.153, 22775.652]"] ;
3 -> 4 ;
5 [label="X[5] <= 0.499\ngini = 0.37\nsamples = 4480\nvalue = [2189.32, 6751.676]"] ;
4 -> 5 ;
6 [label="X[37] <= 0.0\ngini = 0.448\nsamples = 1397\nvalue = [702.301, 360.089]"] ;
5 -> 6 ;
7 [label="X[37] <= 0.0\ngini = 0.383\nsamples = 1286\nvalue = [647.695, 225.056]"] ;
6 -> 7 ;
8 [label="X[37] <= 0.0\ngini = 0.225\nsamples = 1202\nvalue = [606.74, 90.022]"] ;
7 -> 8 ;
9 [label="X[24] <= 161.51\ngini = 0.129\nsamples = 1192\nvalue = [602.189, 45.011]"] ;
8 -> 9 ;
10 [label="gini = 0.0\nsamples = 1190\nvalue = [601.684, 0.0]"] ;
9 -> 10 ;
11 [label="X[34] <= 10003.879\ngini = 0.022\nsamples = 2\nvalue = [0.506, 45.011]"] ;
9 -> 11 ;
12 [label="gini = 0.0\nsamples = 1\nvalue = [0.506, 0.0]"] ;
11 -> 12 ;
13 [label="gini = 0.0\nsamples = 1\nvalue = [0.0, 45.011]"] ;
11 -> 13 ;
14 [label="X[25] <= 4.043\ngini = 0.167\nsamples = 10\nvalue = [4.551, 45.011]"] ;
8 -> 14 ;
15 [label="X[35] <= 5.219\ngini = 0.135\nsamples = 8\nvalue = [3.539, 45.011]"] ;
14 -> 15 ;
16 [label="X[27] <= 0.075\ngini = 0.101\nsamples = 6\nvalue = [2.528, 45.011]"] ;
15 -> 16 ;
17 [label="gini = 0.0\nsamples = 5\nvalue = [2.528, 0.0]"] ;
16 -> 17 ;
18 [label="gini = 0.0\nsamples = 1\nvalue = [0.0, 45.011]"] ;
16 -> 18 ;
19 [label="gini = 0.0\nsamples = 2\nvalue = [1.011, 0.0]"] ;
15 -> 19 ;
20 [label="gini = 0.0\nsamples = 2\nvalue = [1.011, 0.0]"] ;
14 -> 20 ;
21 [label="X[23] <= 460204.101\ngini = 0.357\nsamples = 84\nvalue = [40.955, 135.034]"] ;
7 -> 21 ;
22 [label="X[31] <= 1.558\ngini = 0.35\nsamples = 81\nvalue = [39.438, 135.034]"] ;
21 -> 22 ;
23 [label="X[37] <= 0.0\ngini = 0.422\nsamples = 79\nvalue = [38.932, 90.022]"] ;
22 -> 23 ;
24 [label="X[35] <= 4.043\ngini = 0.386\nsamples = 65\nvalue = [31.854, 90.022]"] ;
23 -> 24 ;
25 [label="gini = 0.0\nsamples = 6\nvalue = [3.034, 0.0]"] ;
24 -> 25 ;
26 [label="X[26] <= 3.942\ngini = 0.367\nsamples = 59\nvalue = [28.82, 90.022]"] ;
24 -> 26 ;
27 [label="X[37] <= 0.0\ngini = 0.364\nsamples = 58\nvalue = [28.315, 90.022]"] ;
26 -> 27 ;
28 [label="gini = 0.0\nsamples = 13\nvalue = [6.573, 0.0]"] ;
27 -> 28 ;
29 [label="X[29] <= 3.476\ngini = 0.313\nsamples = 45\nvalue = [21.742, 90.022]"] ;
27 -> 29 ;
30 [label="X[27] <= 1.541\ngini = 0.436\nsamples = 43\nvalue = [21.236, 45.011]"] ;
29 -> 30 ;
31 [label="X[30] <= 1.333\ngini = 0.424\nsamples = 40\nvalue = [19.719, 45.011]"] ;
30 -> 31 ;
32 [label="X[37] <= 0.0\ngini = 0.377\nsamples = 31\nvalue = [15.168, 45.011]"] ;
31 -> 32 ;
33 [label="X[37] <= 0.0\ngini = 0.371\nsamples = 30\nvalue = [14.663, 45.011]"] ;
32 -> 33 ;
34 [label="X[35] <= 5.11\ngini = 0.326\nsamples = 24\nvalue = [11.629, 45.011]"] ;
33 -> 34 ;
35 [label="X[29] <= 0.16\ngini = 0.258\nsamples = 17\nvalue = [8.09, 45.011]"] ;
34 -> 35 ;
36 [label="X[25] <= 3.032\ngini = 0.209\nsamples = 13\nvalue = [6.067, 45.011]"] ;
35 -> 36 ;
37 [label="X[36] <= 1.843\ngini = 0.167\nsamples = 10\nvalue = [4.551, 45.011]"] ;
36 -> 37 ;
38 [label="X[23] <= 59186.32\ngini = 0.151\nsamples = 9\nvalue = [4.045, 45.011]"] ;
37 -> 38 ;
39 [label="X[24] <= 17.013\ngini = 0.135\nsamples = 8\nvalue = [3.539, 45.011]"] ;
38 -> 39 ;
40 [label="gini = 0.0\nsamples = 1\nvalue = [0.506, 0.0]"] ;
39 -> 40 ;
41 [label="X[37] <= 0.0\ngini = 0.118\nsamples = 7\nvalue = [3.034, 45.011]"] ;
39 -> 41 ;
42 [label="gini = 0.0\nsamples = 4\nvalue = [2.022, 0.0]"] ;
41 -> 42 ;
43 [label="X[36] <= 0.341\ngini = 0.043\nsamples = 3\nvalue = [1.011, 45.011]"] ;
41 -> 43 ;
44 [label="X[24] <= 83.733\ngini = 0.022\nsamples = 2\nvalue = [0.506, 45.011]"] ;
43 -> 44 ;
45 [label="gini = 0.0\nsamples = 1\nvalue = [0.506, 0.0]"] ;
44 -> 45 ;
46 [label="gini = 0.0\nsamples = 1\nvalue = [0.0, 45.011]"] ;
44 -> 46 ;
47 [label="gini = 0.0\nsamples = 1\nvalue = [0.506, 0.0]"] ;
43 -> 47 ;
48 [label="gini = 0.0\nsamples = 1\nvalue = [0.506, 0.0]"] ;
38 -> 48 ;
49 [label="gini = 0.0\nsamples = 1\nvalue = [0.506, 0.0]"] ;
37 -> 49 ;
50 [label="gini = 0.0\nsamples = 3\nvalue = [1.517, 0.0]"] ;
36 -> 50 ;
51 [label="gini = 0.0\nsamples = 4\nvalue = [2.022, 0.0]"] ;
35 -> 51 ;
52 [label="gini = 0.0\nsamples = 7\nvalue = [3.539, 0.0]"] ;
34 -> 52 ;
53 [label="gini = 0.0\nsamples = 6\nvalue = [3.034, 0.0]"] ;
33 -> 53 ;
54 [label="gini = 0.0\nsamples = 1\nvalue = [0.506, 0.0]"] ;
32 -> 54 ;
55 [label="gini = 0.0\nsamples = 9\nvalue = [4.551, 0.0]"] ;
31 -> 55 ;
56 [label="gini = -0.0\nsamples = 3\nvalue = [1.517, 0.0]"] ;
30 -> 56 ;
57 [label="X[27] <= 1.942\ngini = 0.022\nsamples = 2\nvalue = [0.506, 45.011]"] ;
29 -> 57 ;
58 [label="gini = 0.0\nsamples = 1\nvalue = [0.506, 0.0]"] ;
57 -> 58 ;
59 [label="gini = 0.0\nsamples = 1\nvalue = [0.0, 45.011]"] ;
57 -> 59 ;
60 [label="gini = -0.0\nsamples = 1\nvalue = [0.506, 0.0]"] ;
26 -> 60 ;
61 [label="gini = -0.0\nsamples = 14\nvalue = [7.079, 0.0]"] ;
23 -> 61 ;
62 [label="X[34] <= 2380.344\ngini = 0.022\nsamples = 2\nvalue = [0.506, 45.011]"] ;
22 -> 62 ;
63 [label="gini = 0.0\nsamples = 1\nvalue = [0.0, 45.011]"] ;
62 -> 63 ;
64 [label="gini = 0.0\nsamples = 1\nvalue = [0.506, 0.0]"] ;
62 -> 64 ;
65 [label="gini = -0.0\nsamples = 3\nvalue = [1.517, 0.0]"] ;
21 -> 65 ;
66 [label="X[37] <= 0.0\ngini = 0.41\nsamples = 111\nvalue = [54.607, 135.034]"] ;
6 -> 66 ;
67 [label="X[24] <= 644.664\ngini = 0.324\nsamples = 71\nvalue = [34.382, 135.034]"] ;
66 -> 67 ;
68 [label="X[23] <= 61563.595\ngini = 0.483\nsamples = 62\nvalue = [30.843, 45.011]"] ;
67 -> 68 ;
69 [label="X[27] <= 0.55\ngini = 0.478\nsamples = 59\nvalue = [29.326, 45.011]"] ;
68 -> 69 ;
70 [label="gini = 0.0\nsamples = 52\nvalue = [26.292, 0.0]"] ;
69 -> 70 ;
71 [label="X[28] <= 0.644\ngini = 0.118\nsamples = 7\nvalue = [3.034, 45.011]"] ;
69 -> 71 ;
72 [label="gini = 0.0\nsamples = 2\nvalue = [1.011, 0.0]"] ;
71 -> 72 ;
73 [label="X[29] <= 3.66\ngini = 0.082\nsamples = 5\nvalue = [2.022, 45.011]"] ;
71 -> 73 ;
74 [label="X[36] <= 1.504\ngini = 0.063\nsamples = 4\nvalue = [1.517, 45.011]"] ;
73 -> 74 ;
75 [label="X[23] <= 10378.829\ngini = 0.043\nsamples = 3\nvalue = [1.011, 45.011]"] ;
74 -> 75 ;
76 [label="gini = -0.0\nsamples = 2\nvalue = [1.011, 0.0]"] ;
75 -> 76 ;
77 [label="gini = 0.0\nsamples = 1\nvalue = [0.0, 45.011]"] ;
75 -> 77 ;
78 [label="gini = 0.0\nsamples = 1\nvalue = [0.506, 0.0]"] ;
74 -> 78 ;
79 [label="gini = 0.0\nsamples = 1\nvalue = [0.506, 0.0]"] ;
73 -> 79 ;
80 [label="gini = -0.0\nsamples = 3\nvalue = [1.517, 0.0]"] ;
68 -> 80 ;
81 [label="X[26] <= 0.967\ngini = 0.073\nsamples = 9\nvalue = [3.539, 90.022]"] ;
67 -> 81 ;
82 [label="X[36] <= 0.11\ngini = 0.022\nsamples = 2\nvalue = [0.506, 45.011]"] ;
81 -> 82 ;
83 [label="gini = 0.0\nsamples = 1\nvalue = [0.0, 45.011]"] ;
82 -> 83 ;
84 [label="gini = 0.0\nsamples = 1\nvalue = [0.506, 0.0]"] ;
82 -> 84 ;
85 [label="X[34] <= 885.89\ngini = 0.118\nsamples = 7\nvalue = [3.034, 45.011]"] ;
81 -> 85 ;
86 [label="X[31] <= 4.252\ngini = 0.043\nsamples = 3\nvalue = [1.011, 45.011]"] ;
85 -> 86 ;
87 [label="X[36] <= 0.211\ngini = 0.022\nsamples = 2\nvalue = [0.506, 45.011]"] ;
86 -> 87 ;
88 [label="gini = 0.0\nsamples = 1\nvalue = [0.506, 0.0]"] ;
87 -> 88 ;
89 [label="gini = 0.0\nsamples = 1\nvalue = [0.0, 45.011]"] ;
87 -> 89 ;
90 [label="gini = 0.0\nsamples = 1\nvalue = [0.506, 0.0]"] ;
86 -> 90 ;
91 [label="gini = 0.0\nsamples = 4\nvalue = [2.022, 0.0]"] ;
85 -> 91 ;
92 [label="gini = -0.0\nsamples = 40\nvalue = [20.225, 0.0]"] ;
66 -> 92 ;
93 [label="X[27] <= 6.527\ngini = 0.306\nsamples = 3083\nvalue = [1487.018, 6391.586]"] ;
5 -> 93 ;
94 [label="X[27] <= 4.645\ngini = 0.349\nsamples = 2881\nvalue = [1402.58, 4816.195]"] ;
93 -> 94 ;
95 [label="X[27] <= 0.42\ngini = 0.375\nsamples = 2815\nvalue = [1376.794, 4141.028]"] ;
94 -> 95 ;
96 [label="X[29] <= 10.246\ngini = 0.498\nsamples = 2303\nvalue = [1149.772, 1305.324]"] ;
95 -> 96 ;
97 [label="X[34] <= 70166.046\ngini = 0.498\nsamples = 2292\nvalue = [1144.21, 1305.324]"] ;
96 -> 97 ;
98 [label="X[28] <= 1.357\ngini = 0.498\nsamples = 2290\nvalue = [1143.199, 1305.324]"] ;
97 -> 98 ;
99 [label="X[25] <= 1.913\ngini = 0.498\nsamples = 2259\nvalue = [1131.064, 990.246]"] ;
98 -> 99 ;
100 [label="gini = 0.0\nsamples = 1659\nvalue = [838.818, 0.0]"] ;
99 -> 100 ;
101 [label="X[22] <= 0.723\ngini = 0.352\nsamples = 600\nvalue = [292.246, 990.246]"] ;
99 -> 101 ;
102 [label="X[30] <= 1.067\ngini = 0.497\nsamples = 77\nvalue = [38.427, 45.011]"] ;
101 -> 102 ;
103 [label="gini = -0.0\nsamples = 53\nvalue = [26.798, 0.0]"] ;
102 -> 103 ;
104 [label="X[35] <= 8.106\ngini = 0.326\nsamples = 24\nvalue = [11.629, 45.011]"] ;
102 -> 104 ;
105 [label="X[36] <= 0.12\ngini = 0.318\nsamples = 23\nvalue = [11.124, 45.011]"] ;
104 -> 105 ;
106 [label="gini = 0.0\nsamples = 16\nvalue = [8.09, 0.0]"] ;
105 -> 106 ;
107 [label="X[29] <= 2.141\ngini = 0.118\nsamples = 7\nvalue = [3.034, 45.011]"] ;
105 -> 107 ;
108 [label="X[36] <= 0.157\ngini = 0.082\nsamples = 5\nvalue = [2.022, 45.011]"] ;
107 -> 108 ;
109 [label="gini = 0.0\nsamples = 1\nvalue = [0.0, 45.011]"] ;
108 -> 109 ;
110 [label="gini = 0.0\nsamples = 4\nvalue = [2.022, 0.0]"] ;
108 -> 110 ;
111 [label="gini = 0.0\nsamples = 2\nvalue = [1.011, 0.0]"] ;
107 -> 111 ;
112 [label="gini = 0.0\nsamples = 1\nvalue = [0.506, 0.0]"] ;
104 -> 112 ;
113 [label="X[34] <= 1827.983\ngini = 0.334\nsamples = 523\nvalue = [253.82, 945.235]"] ;
101 -> 113 ;
114 [label="X[24] <= 1182.033\ngini = 0.309\nsamples = 440\nvalue = [212.359, 900.223]"] ;
113 -> 114 ;
115 [label="X[12] <= 0.314\ngini = 0.335\nsamples = 425\nvalue = [206.292, 765.19]"] ;
114 -> 115 ;
116 [label="X[31] <= 0.461\ngini = 0.276\nsamples = 112\nvalue = [53.595, 270.067]"] ;
115 -> 116 ;
117 [label="X[29] <= 1.928\ngini = 0.33\nsamples = 98\nvalue = [47.528, 180.045]"] ;
116 -> 117 ;
118 [label="X[23] <= 2391.854\ngini = 0.468\nsamples = 54\nvalue = [26.798, 45.011]"] ;
117 -> 118 ;
119 [label="gini = 0.0\nsamples = 12\nvalue = [6.067, 0.0]"] ;
118 -> 119 ;
120 [label="X[35] <= 15.395\ngini = 0.432\nsamples = 42\nvalue = [20.73, 45.011]"] ;
118 -> 120 ;
121 [label="X[36] <= 0.344\ngini = 0.405\nsamples = 36\nvalue = [17.697, 45.011]"] ;
120 -> 121 ;
122 [label="X[23] <= 16510.921\ngini = 0.342\nsamples = 26\nvalue = [12.64, 45.011]"] ;
121 -> 122 ;
123 [label="X[34] <= 208.029\ngini = 0.309\nsamples = 22\nvalue = [10.618, 45.011]"] ;
122 -> 123 ;
124 [label="gini = 0.0\nsamples = 15\nvalue = [7.584, 0.0]"] ;
123 -> 124 ;
125 [label="X[24] <= 95.394\ngini = 0.118\nsamples = 7\nvalue = [3.034, 45.011]"] ;
123 -> 125 ;
126 [label="X[23] <= 6710.856\ngini = 0.082\nsamples = 5\nvalue = [2.022, 45.011]"] ;
125 -> 126 ;
127 [label="X[25] <= 3.801\ngini = 0.063\nsamples = 4\nvalue = [1.517, 45.011]"] ;
126 -> 127 ;
128 [label="gini = 0.0\nsamples = 1\nvalue = [0.506, 0.0]"] ;
127 -> 128 ;
129 [label="X[35] <= 4.336\ngini = 0.043\nsamples = 3\nvalue = [1.011, 45.011]"] ;
127 -> 129 ;
130 [label="X[34] <= 229.107\ngini = 0.022\nsamples = 2\nvalue = [0.506, 45.011]"] ;
129 -> 130 ;
131 [label="gini = 0.0\nsamples = 1\nvalue = [0.0, 45.011]"] ;
130 -> 131 ;
132 [label="gini = 0.0\nsamples = 1\nvalue = [0.506, 0.0]"] ;
130 -> 132 ;
133 [label="gini = 0.0\nsamples = 1\nvalue = [0.506, 0.0]"] ;
129 -> 133 ;
134 [label="gini = 0.0\nsamples = 1\nvalue = [0.506, 0.0]"] ;
126 -> 134 ;
135 [label="gini = 0.0\nsamples = 2\nvalue = [1.011, 0.0]"] ;
125 -> 135 ;
136 [label="gini = 0.0\nsamples = 4\nvalue = [2.022, 0.0]"] ;
122 -> 136 ;
137 [label="gini = 0.0\nsamples = 10\nvalue = [5.056, 0.0]"] ;
121 -> 137 ;
138 [label="gini = 0.0\nsamples = 6\nvalue = [3.034, 0.0]"] ;
120 -> 138 ;
139 [label="X[24] <= 709.232\ngini = 0.231\nsamples = 44\nvalue = [20.73, 135.034]"] ;
117 -> 139 ;
140 [label="X[35] <= 14.024\ngini = 0.227\nsamples = 43\nvalue = [20.225, 135.034]"] ;
139 -> 140 ;
141 [label="X[36] <= 0.2\ngini = 0.196\nsamples = 36\nvalue = [16.685, 135.034]"] ;
140 -> 141 ;
142 [label="X[23] <= 38619.026\ngini = 0.113\nsamples = 20\nvalue = [8.595, 135.034]"] ;
141 -> 142 ;
143 [label="X[23] <= 16035.585\ngini = 0.107\nsamples = 19\nvalue = [8.09, 135.034]"] ;
142 -> 143 ;
144 [label="X[23] <= 10526.768\ngini = 0.101\nsamples = 18\nvalue = [7.584, 135.034]"] ;
143 -> 144 ;
145 [label="X[35] <= 1.087\ngini = 0.222\nsamples = 14\nvalue = [6.573, 45.011]"] ;
144 -> 145 ;
146 [label="X[23] <= 3244.223\ngini = 0.022\nsamples = 2\nvalue = [0.506, 45.011]"] ;
145 -> 146 ;
147 [label="gini = 0.0\nsamples = 1\nvalue = [0.506, 0.0]"] ;
146 -> 147 ;
148 [label="gini = 0.0\nsamples = 1\nvalue = [0.0, 45.011]"] ;
146 -> 148 ;
149 [label="gini = 0.0\nsamples = 12\nvalue = [6.067, 0.0]"] ;
145 -> 149 ;
150 [label="X[24] <= 68.593\ngini = 0.022\nsamples = 4\nvalue = [1.011, 90.022]"] ;
144 -> 150 ;
151 [label="gini = 0.0\nsamples = 1\nvalue = [0.506, 0.0]"] ;
150 -> 151 ;
152 [label="X[30] <= 0.572\ngini = 0.011\nsamples = 3\nvalue = [0.506, 90.022]"] ;
150 -> 152 ;
153 [label="gini = 0.0\nsamples = 1\nvalue = [0.506, 0.0]"] ;
152 -> 153 ;
154 [label="gini = 0.0\nsamples = 2\nvalue = [0.0, 90.022]"] ;
152 -> 154 ;
155 [label="gini = -0.0\nsamples = 1\nvalue = [0.506, 0.0]"] ;
143 -> 155 ;
156 [label="gini = -0.0\nsamples = 1\nvalue = [0.506, 0.0]"] ;
142 -> 156 ;
157 [label="gini = -0.0\nsamples = 16\nvalue = [8.09, 0.0]"] ;
141 -> 157 ;
158 [label="gini = -0.0\nsamples = 7\nvalue = [3.539, 0.0]"] ;
140 -> 158 ;
159 [label="gini = -0.0\nsamples = 1\nvalue = [0.506, 0.0]"] ;
139 -> 159 ;
160 [label="X[36] <= 0.158\ngini = 0.118\nsamples = 14\nvalue = [6.067, 90.022]"] ;
116 -> 160 ;
161 [label="X[24] <= 261.064\ngini = 0.043\nsamples = 3\nvalue = [1.011, 45.011]"] ;
160 -> 161 ;
162 [label="gini = 0.0\nsamples = 1\nvalue = [0.506, 0.0]"] ;
161 -> 162 ;
163 [label="X[24] <= 299.264\ngini = 0.022\nsamples = 2\nvalue = [0.506, 45.011]"] ;
161 -> 163 ;
164 [label="gini = 0.0\nsamples = 1\nvalue = [0.0, 45.011]"] ;
163 -> 164 ;
165 [label="gini = 0.0\nsamples = 1\nvalue = [0.506, 0.0]"] ;
163 -> 165 ;
166 [label="X[24] <= 323.692\ngini = 0.182\nsamples = 11\nvalue = [5.056, 45.011]"] ;
160 -> 166 ;
167 [label="gini = 0.0\nsamples = 9\nvalue = [4.551, 0.0]"] ;
166 -> 167 ;
168 [label="X[37] <= 0.0\ngini = 0.022\nsamples = 2\nvalue = [0.506, 45.011]"] ;
166 -> 168 ;
169 [label="gini = 0.0\nsamples = 1\nvalue = [0.506, 0.0]"] ;
168 -> 169 ;
170 [label="gini = 0.0\nsamples = 1\nvalue = [0.0, 45.011]"] ;
168 -> 170 ;
171 [label="X[25] <= 37.863\ngini = 0.36\nsamples = 313\nvalue = [152.696, 495.123]"] ;
115 -> 171 ;
172 [label="X[34] <= 77.212\ngini = 0.359\nsamples = 311\nvalue = [151.685, 495.123]"] ;
171 -> 172 ;
173 [label="gini = 0.0\nsamples = 4\nvalue = [2.022, 0.0]"] ;
172 -> 173 ;
174 [label="X[25] <= 3.131\ngini = 0.356\nsamples = 307\nvalue = [149.663, 495.123]"] ;
172 -> 174 ;
175 [label="X[36] <= 0.213\ngini = 0.28\nsamples = 38\nvalue = [18.202, 90.022]"] ;
174 -> 175 ;
176 [label="X[34] <= 226.437\ngini = 0.222\nsamples = 28\nvalue = [13.146, 90.022]"] ;
175 -> 176 ;
177 [label="X[29] <= 0.464\ngini = 0.053\nsamples = 7\nvalue = [2.528, 90.022]"] ;
176 -> 177 ;
178 [label="X[36] <= 0.122\ngini = 0.082\nsamples = 5\nvalue = [2.022, 45.011]"] ;
177 -> 178 ;
179 [label="X[35] <= 4.758\ngini = 0.043\nsamples = 3\nvalue = [1.011, 45.011]"] ;
178 -> 179 ;
180 [label="X[34] <= 139.11\ngini = 0.022\nsamples = 2\nvalue = [0.506, 45.011]"] ;
179 -> 180 ;
181 [label="gini = 0.0\nsamples = 1\nvalue = [0.0, 45.011]"] ;
180 -> 181 ;
182 [label="gini = 0.0\nsamples = 1\nvalue = [0.506, 0.0]"] ;
180 -> 182 ;
183 [label="gini = 0.0\nsamples = 1\nvalue = [0.506, 0.0]"] ;
179 -> 183 ;
184 [label="gini = 0.0\nsamples = 2\nvalue = [1.011, 0.0]"] ;
178 -> 184 ;
185 [label="X[34] <= 140.889\ngini = 0.022\nsamples = 2\nvalue = [0.506, 45.011]"] ;
177 -> 185 ;
186 [label="gini = 0.0\nsamples = 1\nvalue = [0.0, 45.011]"] ;
185 -> 186 ;
187 [label="gini = 0.0\nsamples = 1\nvalue = [0.506, 0.0]"] ;
185 -> 187 ;
188 [label="gini = 0.0\nsamples = 21\nvalue = [10.618, 0.0]"] ;
176 -> 188 ;
189 [label="gini = -0.0\nsamples = 10\nvalue = [5.056, 0.0]"] ;
175 -> 189 ;
190 [label="X[37] <= 0.004\ngini = 0.37\nsamples = 269\nvalue = [131.46, 405.101]"] ;
174 -> 190 ;
191 [label="X[31] <= 1.417\ngini = 0.366\nsamples = 264\nvalue = [128.932, 405.101]"] ;
190 -> 191 ;
192 [label="X[37] <= 0.003\ngini = 0.361\nsamples = 229\nvalue = [111.741, 360.089]"] ;
191 -> 192 ;
193 [label="X[24] <= 698.459\ngini = 0.355\nsamples = 222\nvalue = [108.202, 360.089]"] ;
192 -> 193 ;
194 [label="X[30] <= 0.597\ngini = 0.35\nsamples = 216\nvalue = [105.168, 360.089]"] ;
193 -> 194 ;
195 [label="X[25] <= 9.222\ngini = 0.377\nsamples = 155\nvalue = [75.842, 225.056]"] ;
194 -> 195 ;
196 [label="X[36] <= 0.468\ngini = 0.363\nsamples = 144\nvalue = [70.281, 225.056]"] ;
195 -> 196 ;
197 [label="X[24] <= 248.893\ngini = 0.309\nsamples = 110\nvalue = [53.09, 225.056]"] ;
196 -> 197 ;
198 [label="X[23] <= 35857.078\ngini = 0.3\nsamples = 84\nvalue = [40.449, 180.045]"] ;
197 -> 198 ;
199 [label="X[25] <= 8.365\ngini = 0.295\nsamples = 82\nvalue = [39.438, 180.045]"] ;
198 -> 199 ;
200 [label="X[25] <= 5.402\ngini = 0.292\nsamples = 81\nvalue = [38.932, 180.045]"] ;
199 -> 200 ;
201 [label="X[35] <= 10.14\ngini = 0.324\nsamples = 71\nvalue = [34.382, 135.034]"] ;
200 -> 201 ;
202 [label="X[37] <= 0.001\ngini = 0.3\nsamples = 63\nvalue = [30.337, 135.034]"] ;
201 -> 202 ;
203 [label="X[36] <= 0.225\ngini = 0.322\nsamples = 47\nvalue = [22.753, 90.022]"] ;
202 -> 203 ;
204 [label="X[23] <= 8336.789\ngini = 0.275\nsamples = 37\nvalue = [17.697, 90.022]"] ;
203 -> 204 ;
205 [label="gini = 0.0\nsamples = 20\nvalue = [10.112, 0.0]"] ;
204 -> 205 ;
206 [label="X[29] <= 1.894\ngini = 0.143\nsamples = 17\nvalue = [7.584, 90.022]"] ;
204 -> 206 ;
207 [label="X[23] <= 18771.363\ngini = 0.082\nsamples = 10\nvalue = [4.045, 90.022]"] ;
206 -> 207 ;
208 [label="X[36] <= 0.138\ngini = 0.053\nsamples = 7\nvalue = [2.528, 90.022]"] ;
207 -> 208 ;
209 [label="gini = 0.0\nsamples = 3\nvalue = [1.517, 0.0]"] ;
208 -> 209 ;
210 [label="X[24] <= 152.263\ngini = 0.022\nsamples = 4\nvalue = [1.011, 90.022]"] ;
208 -> 210 ;
211 [label="gini = 0.0\nsamples = 1\nvalue = [0.0, 45.011]"] ;
210 -> 211 ;
212 [label="X[34] <= 556.275\ngini = 0.043\nsamples = 3\nvalue = [1.011, 45.011]"] ;
210 -> 212 ;
213 [label="X[24] <= 168.462\ngini = 0.022\nsamples = 2\nvalue = [0.506, 45.011]"] ;
212 -> 213 ;
214 [label="gini = 0.0\nsamples = 1\nvalue = [0.506, 0.0]"] ;
213 -> 214 ;
215 [label="gini = 0.0\nsamples = 1\nvalue = [0.0, 45.011]"] ;
213 -> 215 ;
216 [label="gini = 0.0\nsamples = 1\nvalue = [0.506, 0.0]"] ;
212 -> 216 ;
217 [label="gini = -0.0\nsamples = 3\nvalue = [1.517, 0.0]"] ;
207 -> 217 ;
218 [label="gini = -0.0\nsamples = 7\nvalue = [3.539, 0.0]"] ;
206 -> 218 ;
219 [label="gini = -0.0\nsamples = 10\nvalue = [5.056, 0.0]"] ;
203 -> 219 ;
220 [label="X[29] <= 1.729\ngini = 0.247\nsamples = 16\nvalue = [7.584, 45.011]"] ;
202 -> 220 ;
221 [label="gini = -0.0\nsamples = 11\nvalue = [5.562, 0.0]"] ;
220 -> 221 ;
222 [label="X[37] <= 0.002\ngini = 0.082\nsamples = 5\nvalue = [2.022, 45.011]"] ;
220 -> 222 ;
223 [label="gini = 0.0\nsamples = 4\nvalue = [2.022, 0.0]"] ;
222 -> 223 ;
224 [label="gini = 0.0\nsamples = 1\nvalue = [0.0, 45.011]"] ;
222 -> 224 ;
225 [label="gini = -0.0\nsamples = 8\nvalue = [4.045, 0.0]"] ;
201 -> 225 ;
226 [label="X[32] <= 1.242\ngini = 0.167\nsamples = 10\nvalue = [4.551, 45.011]"] ;
200 -> 226 ;
227 [label="X[36] <= 0.228\ngini = 0.151\nsamples = 9\nvalue = [4.045, 45.011]"] ;
226 -> 227 ;
228 [label="gini = 0.0\nsamples = 4\nvalue = [2.022, 0.0]"] ;
227 -> 228 ;
229 [label="X[24] <= 119.041\ngini = 0.082\nsamples = 5\nvalue = [2.022, 45.011]"] ;
227 -> 229 ;
230 [label="gini = 0.0\nsamples = 2\nvalue = [1.011, 0.0]"] ;
229 -> 230 ;
231 [label="X[36] <= 0.314\ngini = 0.043\nsamples = 3\nvalue = [1.011, 45.011]"] ;
229 -> 231 ;
232 [label="X[37] <= 0.001\ngini = 0.022\nsamples = 2\nvalue = [0.506, 45.011]"] ;
231 -> 232 ;
233 [label="gini = 0.0\nsamples = 1\nvalue = [0.506, 0.0]"] ;
232 -> 233 ;
234 [label="gini = 0.0\nsamples = 1\nvalue = [0.0, 45.011]"] ;
232 -> 234 ;
235 [label="gini = 0.0\nsamples = 1\nvalue = [0.506, 0.0]"] ;
231 -> 235 ;
236 [label="gini = 0.0\nsamples = 1\nvalue = [0.506, 0.0]"] ;
226 -> 236 ;
237 [label="gini = -0.0\nsamples = 1\nvalue = [0.506, 0.0]"] ;
199 -> 237 ;
238 [label="gini = -0.0\nsamples = 2\nvalue = [1.011, 0.0]"] ;
198 -> 238 ;
239 [label="X[37] <= 0.0\ngini = 0.342\nsamples = 26\nvalue = [12.64, 45.011]"] ;
197 -> 239 ;
240 [label="X[29] <= 0.131\ngini = 0.28\nsamples = 19\nvalue = [9.101, 45.011]"] ;
239 -> 240 ;
241 [label="gini = 0.0\nsamples = 9\nvalue = [4.551, 0.0]"] ;
240 -> 241 ;
242 [label="X[23] <= 30884.923\ngini = 0.167\nsamples = 10\nvalue = [4.551, 45.011]"] ;
240 -> 242 ;
243 [label="X[29] <= 2.164\ngini = 0.118\nsamples = 7\nvalue = [3.034, 45.011]"] ;
242 -> 243 ;
244 [label="gini = 0.0\nsamples = 5\nvalue = [2.528, 0.0]"] ;
243 -> 244 ;
245 [label="X[36] <= 0.255\ngini = 0.022\nsamples = 2\nvalue = [0.506, 45.011]"] ;
243 -> 245 ;
246 [label="gini = 0.0\nsamples = 1\nvalue = [0.506, 0.0]"] ;
245 -> 246 ;
247 [label="gini = 0.0\nsamples = 1\nvalue = [0.0, 45.011]"] ;
245 -> 247 ;
248 [label="gini = 0.0\nsamples = 3\nvalue = [1.517, 0.0]"] ;
242 -> 248 ;
249 [label="gini = 0.0\nsamples = 7\nvalue = [3.539, 0.0]"] ;
239 -> 249 ;
250 [label="gini = -0.0\nsamples = 34\nvalue = [17.191, 0.0]"] ;
196 -> 250 ;
251 [label="gini = 0.0\nsamples = 11\nvalue = [5.562, 0.0]"] ;
195 -> 251 ;
252 [label="X[37] <= 0.002\ngini = 0.293\nsamples = 61\nvalue = [29.326, 135.034]"] ;
194 -> 252 ;
253 [label="X[26] <= 0.637\ngini = 0.269\nsamples = 54\nvalue = [25.786, 135.034]"] ;
252 -> 253 ;
254 [label="X[30] <= 2.938\ngini = 0.262\nsamples = 52\nvalue = [24.775, 135.034]"] ;
253 -> 254 ;
255 [label="X[29] <= 4.657\ngini = 0.247\nsamples = 48\nvalue = [22.753, 135.034]"] ;
254 -> 255 ;
256 [label="X[29] <= 2.772\ngini = 0.239\nsamples = 46\nvalue = [21.742, 135.034]"] ;
255 -> 256 ;
257 [label="X[37] <= 0.001\ngini = 0.295\nsamples = 41\nvalue = [19.719, 90.022]"] ;
256 -> 257 ;
258 [label="X[25] <= 4.281\ngini = 0.28\nsamples = 38\nvalue = [18.202, 90.022]"] ;
257 -> 258 ;
259 [label="X[37] <= 0.0\ngini = 0.196\nsamples = 24\nvalue = [11.124, 90.022]"] ;
258 -> 259 ;
260 [label="X[36] <= 0.084\ngini = 0.033\nsamples = 5\nvalue = [1.517, 90.022]"] ;
259 -> 260 ;
261 [label="gini = 0.0\nsamples = 1\nvalue = [0.506, 0.0]"] ;
260 -> 261 ;
262 [label="X[37] <= 0.0\ngini = 0.022\nsamples = 4\nvalue = [1.011, 90.022]"] ;
260 -> 262 ;
263 [label="X[24] <= 219.678\ngini = 0.011\nsamples = 3\nvalue = [0.506, 90.022]"] ;
262 -> 263 ;
264 [label="gini = 0.0\nsamples = 1\nvalue = [0.506, 0.0]"] ;
263 -> 264 ;
265 [label="gini = 0.0\nsamples = 2\nvalue = [0.0, 90.022]"] ;
263 -> 265 ;
266 [label="gini = -0.0\nsamples = 1\nvalue = [0.506, 0.0]"] ;
262 -> 266 ;
267 [label="gini = -0.0\nsamples = 19\nvalue = [9.607, 0.0]"] ;
259 -> 267 ;
268 [label="gini = -0.0\nsamples = 14\nvalue = [7.079, 0.0]"] ;
258 -> 268 ;
269 [label="gini = -0.0\nsamples = 3\nvalue = [1.517, 0.0]"] ;
257 -> 269 ;
270 [label="X[34] <= 1321.079\ngini = 0.082\nsamples = 5\nvalue = [2.022, 45.011]"] ;
256 -> 270 ;
271 [label="X[23] <= 13182.668\ngini = 0.063\nsamples = 4\nvalue = [1.517, 45.011]"] ;
270 -> 271 ;
272 [label="gini = 0.0\nsamples = 1\nvalue = [0.506, 0.0]"] ;
271 -> 272 ;
273 [label="X[24] <= 176.999\ngini = 0.043\nsamples = 3\nvalue = [1.011, 45.011]"] ;
271 -> 273 ;
274 [label="gini = 0.0\nsamples = 1\nvalue = [0.0, 45.011]"] ;
273 -> 274 ;
275 [label="gini = 0.0\nsamples = 2\nvalue = [1.011, 0.0]"] ;
273 -> 275 ;
276 [label="gini = 0.0\nsamples = 1\nvalue = [0.506, 0.0]"] ;
270 -> 276 ;
277 [label="gini = -0.0\nsamples = 2\nvalue = [1.011, 0.0]"] ;
255 -> 277 ;
278 [label="gini = -0.0\nsamples = 4\nvalue = [2.022, 0.0]"] ;
254 -> 278 ;
279 [label="gini = -0.0\nsamples = 2\nvalue = [1.011, 0.0]"] ;
253 -> 279 ;
280 [label="gini = -0.0\nsamples = 7\nvalue = [3.539, 0.0]"] ;
252 -> 280 ;
281 [label="gini = 0.0\nsamples = 6\nvalue = [3.034, 0.0]"] ;
193 -> 281 ;
282 [label="gini = 0.0\nsamples = 7\nvalue = [3.539, 0.0]"] ;
192 -> 282 ;
283 [label="X[25] <= 7.905\ngini = 0.4\nsamples = 35\nvalue = [17.191, 45.011]"] ;
191 -> 283 ;
284 [label="gini = -0.0\nsamples = 18\nvalue = [9.101, 0.0]"] ;
283 -> 284 ;
285 [label="X[29] <= 8.571\ngini = 0.258\nsamples = 17\nvalue = [8.09, 45.011]"] ;
283 -> 285 ;
286 [label="X[31] <= 4.561\ngini = 0.222\nsamples = 14\nvalue = [6.573, 45.011]"] ;
285 -> 286 ;
287 [label="X[29] <= 4.368\ngini = 0.209\nsamples = 13\nvalue = [6.067, 45.011]"] ;
286 -> 287 ;
288 [label="gini = 0.0\nsamples = 6\nvalue = [3.034, 0.0]"] ;
287 -> 288 ;
289 [label="X[29] <= 7.515\ngini = 0.118\nsamples = 7\nvalue = [3.034, 45.011]"] ;
287 -> 289 ;
290 [label="gini = 0.0\nsamples = 4\nvalue = [2.022, 0.0]"] ;
289 -> 290 ;
291 [label="X[37] <= 0.001\ngini = 0.043\nsamples = 3\nvalue = [1.011, 45.011]"] ;
289 -> 291 ;
292 [label="gini = 0.0\nsamples = 1\nvalue = [0.0, 45.011]"] ;
291 -> 292 ;
293 [label="gini = -0.0\nsamples = 2\nvalue = [1.011, 0.0]"] ;
291 -> 293 ;
294 [label="gini = 0.0\nsamples = 1\nvalue = [0.506, 0.0]"] ;
286 -> 294 ;
295 [label="gini = 0.0\nsamples = 3\nvalue = [1.517, 0.0]"] ;
285 -> 295 ;
296 [label="gini = 0.0\nsamples = 5\nvalue = [2.528, 0.0]"] ;
190 -> 296 ;
297 [label="gini = 0.0\nsamples = 2\nvalue = [1.011, 0.0]"] ;
171 -> 297 ;
298 [label="X[31] <= 2.622\ngini = 0.082\nsamples = 15\nvalue = [6.067, 135.034]"] ;
114 -> 298 ;
299 [label="X[30] <= 1.097\ngini = 0.076\nsamples = 14\nvalue = [5.562, 135.034]"] ;
298 -> 299 ;
300 [label="gini = 0.0\nsamples = 4\nvalue = [2.022, 0.0]"] ;
299 -> 300 ;
301 [label="X[29] <= 4.242\ngini = 0.05\nsamples = 10\nvalue = [3.539, 135.034]"] ;
299 -> 301 ;
302 [label="gini = 0.0\nsamples = 4\nvalue = [2.022, 0.0]"] ;
301 -> 302 ;
303 [label="X[31] <= 0.943\ngini = 0.022\nsamples = 6\nvalue = [1.517, 135.034]"] ;
301 -> 303 ;
304 [label="X[34] <= 747.962\ngini = 0.043\nsamples = 3\nvalue = [1.011, 45.011]"] ;
303 -> 304 ;
305 [label="gini = 0.0\nsamples = 1\nvalue = [0.506, 0.0]"] ;
304 -> 305 ;
306 [label="X[32] <= 0.692\ngini = 0.022\nsamples = 2\nvalue = [0.506, 45.011]"] ;
304 -> 306 ;
307 [label="gini = 0.0\nsamples = 1\nvalue = [0.506, 0.0]"] ;
306 -> 307 ;
308 [label="gini = 0.0\nsamples = 1\nvalue = [0.0, 45.011]"] ;
306 -> 308 ;
309 [label="X[37] <= 0.0\ngini = 0.011\nsamples = 3\nvalue = [0.506, 90.022]"] ;
303 -> 309 ;
310 [label="X[37] <= 0.0\ngini = 0.022\nsamples = 2\nvalue = [0.506, 45.011]"] ;
309 -> 310 ;
311 [label="gini = 0.0\nsamples = 1\nvalue = [0.0, 45.011]"] ;
310 -> 311 ;
312 [label="gini = 0.0\nsamples = 1\nvalue = [0.506, 0.0]"] ;
310 -> 312 ;
313 [label="gini = 0.0\nsamples = 1\nvalue = [0.0, 45.011]"] ;
309 -> 313 ;
314 [label="gini = -0.0\nsamples = 1\nvalue = [0.506, 0.0]"] ;
298 -> 314 ;
315 [label="X[37] <= 0.001\ngini = 0.499\nsamples = 83\nvalue = [41.461, 45.011]"] ;
113 -> 315 ;
316 [label="X[35] <= 37.064\ngini = 0.494\nsamples = 73\nvalue = [36.404, 45.011]"] ;
315 -> 316 ;
317 [label="X[31] <= 1.842\ngini = 0.491\nsamples = 69\nvalue = [34.382, 45.011]"] ;
316 -> 317 ;
318 [label="X[24] <= 351.626\ngini = 0.485\nsamples = 64\nvalue = [31.854, 45.011]"] ;
317 -> 318 ;
319 [label="gini = -0.0\nsamples = 56\nvalue = [28.315, 0.0]"] ;
318 -> 319 ;
320 [label="X[14] <= 0.136\ngini = 0.135\nsamples = 8\nvalue = [3.539, 45.011]"] ;
318 -> 320 ;
321 [label="X[30] <= 1.079\ngini = 0.082\nsamples = 5\nvalue = [2.022, 45.011]"] ;
320 -> 321 ;
322 [label="X[37] <= 0.0\ngini = 0.063\nsamples = 4\nvalue = [1.517, 45.011]"] ;
321 -> 322 ;
323 [label="X[35] <= 20.049\ngini = 0.043\nsamples = 3\nvalue = [1.011, 45.011]"] ;
322 -> 323 ;
324 [label="gini = 0.0\nsamples = 1\nvalue = [0.506, 0.0]"] ;
323 -> 324 ;
325 [label="X[37] <= 0.0\ngini = 0.022\nsamples = 2\nvalue = [0.506, 45.011]"] ;
323 -> 325 ;
326 [label="gini = 0.0\nsamples = 1\nvalue = [0.506, 0.0]"] ;
325 -> 326 ;
327 [label="gini = 0.0\nsamples = 1\nvalue = [0.0, 45.011]"] ;
325 -> 327 ;
328 [label="gini = 0.0\nsamples = 1\nvalue = [0.506, 0.0]"] ;
322 -> 328 ;
329 [label="gini = 0.0\nsamples = 1\nvalue = [0.506, 0.0]"] ;
321 -> 329 ;
330 [label="gini = 0.0\nsamples = 3\nvalue = [1.517, 0.0]"] ;
320 -> 330 ;
331 [label="gini = -0.0\nsamples = 5\nvalue = [2.528, 0.0]"] ;
317 -> 331 ;
332 [label="gini = -0.0\nsamples = 4\nvalue = [2.022, 0.0]"] ;
316 -> 332 ;
333 [label="gini = -0.0\nsamples = 10\nvalue = [5.056, 0.0]"] ;
315 -> 333 ;
334 [label="X[36] <= 1.097\ngini = 0.071\nsamples = 31\nvalue = [12.135, 315.078]"] ;
98 -> 334 ;
335 [label="X[14] <= 0.81\ngini = 0.069\nsamples = 30\nvalue = [11.629, 315.078]"] ;
334 -> 335 ;
336 [label="X[32] <= 0.939\ngini = 0.057\nsamples = 26\nvalue = [9.607, 315.078]"] ;
335 -> 336 ;
337 [label="X[23] <= 130411.466\ngini = 0.101\nsamples = 18\nvalue = [7.584, 135.034]"] ;
336 -> 337 ;
338 [label="X[26] <= 1.594\ngini = 0.095\nsamples = 17\nvalue = [7.079, 135.034]"] ;
337 -> 338 ;
339 [label="X[17] <= 0.983\ngini = 0.089\nsamples = 16\nvalue = [6.573, 135.034]"] ;
338 -> 339 ;
340 [label="X[23] <= 39494.899\ngini = 0.082\nsamples = 15\nvalue = [6.067, 135.034]"] ;
339 -> 340 ;
341 [label="X[31] <= 4.569\ngini = 0.076\nsamples = 14\nvalue = [5.562, 135.034]"] ;
340 -> 341 ;
342 [label="X[36] <= 0.297\ngini = 0.07\nsamples = 13\nvalue = [5.056, 135.034]"] ;
341 -> 342 ;
343 [label="X[29] <= 0.256\ngini = 0.043\nsamples = 9\nvalue = [3.034, 135.034]"] ;
342 -> 343 ;
344 [label="gini = 0.0\nsamples = 1\nvalue = [0.506, 0.0]"] ;
343 -> 344 ;
345 [label="X[25] <= 16.509\ngini = 0.036\nsamples = 8\nvalue = [2.528, 135.034]"] ;
343 -> 345 ;
346 [label="X[22] <= 0.426\ngini = 0.029\nsamples = 7\nvalue = [2.022, 135.034]"] ;
345 -> 346 ;
347 [label="X[35] <= 2.475\ngini = 0.022\nsamples = 2\nvalue = [0.506, 45.011]"] ;
346 -> 347 ;
348 [label="gini = 0.0\nsamples = 1\nvalue = [0.506, 0.0]"] ;
347 -> 348 ;
349 [label="gini = 0.0\nsamples = 1\nvalue = [0.0, 45.011]"] ;
347 -> 349 ;
350 [label="X[29] <= 2.719\ngini = 0.033\nsamples = 5\nvalue = [1.517, 90.022]"] ;
346 -> 350 ;
351 [label="X[36] <= 0.096\ngini = 0.063\nsamples = 4\nvalue = [1.517, 45.011]"] ;
350 -> 351 ;
352 [label="gini = 0.0\nsamples = 2\nvalue = [1.011, 0.0]"] ;
351 -> 352 ;
353 [label="X[24] <= 203.354\ngini = 0.022\nsamples = 2\nvalue = [0.506, 45.011]"] ;
351 -> 353 ;
354 [label="gini = 0.0\nsamples = 1\nvalue = [0.506, 0.0]"] ;
353 -> 354 ;
355 [label="gini = 0.0\nsamples = 1\nvalue = [0.0, 45.011]"] ;
353 -> 355 ;
356 [label="gini = 0.0\nsamples = 1\nvalue = [0.0, 45.011]"] ;
350 -> 356 ;
357 [label="gini = -0.0\nsamples = 1\nvalue = [0.506, 0.0]"] ;
345 -> 357 ;
358 [label="gini = -0.0\nsamples = 4\nvalue = [2.022, 0.0]"] ;
342 -> 358 ;
359 [label="gini = -0.0\nsamples = 1\nvalue = [0.506, 0.0]"] ;
341 -> 359 ;
360 [label="gini = -0.0\nsamples = 1\nvalue = [0.506, 0.0]"] ;
340 -> 360 ;
361 [label="gini = -0.0\nsamples = 1\nvalue = [0.506, 0.0]"] ;
339 -> 361 ;
362 [label="gini = -0.0\nsamples = 1\nvalue = [0.506, 0.0]"] ;
338 -> 362 ;
363 [label="gini = -0.0\nsamples = 1\nvalue = [0.506, 0.0]"] ;
337 -> 363 ;
364 [label="X[36] <= 0.674\ngini = 0.022\nsamples = 8\nvalue = [2.022, 180.045]"] ;
336 -> 364 ;
365 [label="X[30] <= 1.403\ngini = 0.022\nsamples = 6\nvalue = [1.517, 135.034]"] ;
364 -> 365 ;
366 [label="gini = 0.0\nsamples = 1\nvalue = [0.0, 45.011]"] ;
365 -> 366 ;
367 [label="X[25] <= 9.651\ngini = 0.033\nsamples = 5\nvalue = [1.517, 90.022]"] ;
365 -> 367 ;
368 [label="X[24] <= 369.23\ngini = 0.022\nsamples = 4\nvalue = [1.011, 90.022]"] ;
367 -> 368 ;
369 [label="X[24] <= 67.286\ngini = 0.043\nsamples = 3\nvalue = [1.011, 45.011]"] ;
368 -> 369 ;
370 [label="gini = 0.0\nsamples = 1\nvalue = [0.0, 45.011]"] ;
369 -> 370 ;
371 [label="gini = 0.0\nsamples = 2\nvalue = [1.011, 0.0]"] ;
369 -> 371 ;
372 [label="gini = 0.0\nsamples = 1\nvalue = [0.0, 45.011]"] ;
368 -> 372 ;
373 [label="gini = -0.0\nsamples = 1\nvalue = [0.506, 0.0]"] ;
367 -> 373 ;
374 [label="X[23] <= 8557.633\ngini = 0.022\nsamples = 2\nvalue = [0.506, 45.011]"] ;
364 -> 374 ;
375 [label="gini = 0.0\nsamples = 1\nvalue = [0.0, 45.011]"] ;
374 -> 375 ;
376 [label="gini = 0.0\nsamples = 1\nvalue = [0.506, 0.0]"] ;
374 -> 376 ;
377 [label="gini = -0.0\nsamples = 4\nvalue = [2.022, 0.0]"] ;
335 -> 377 ;
378 [label="gini = -0.0\nsamples = 1\nvalue = [0.506, 0.0]"] ;
334 -> 378 ;
379 [label="gini = 0.0\nsamples = 2\nvalue = [1.011, 0.0]"] ;
97 -> 379 ;
380 [label="gini = 0.0\nsamples = 11\nvalue = [5.562, 0.0]"] ;
96 -> 380 ;
381 [label="X[27] <= 2.693\ngini = 0.137\nsamples = 512\nvalue = [227.022, 2835.704]"] ;
95 -> 381 ;
382 [label="X[24] <= 14473.21\ngini = 0.147\nsamples = 392\nvalue = [175.449, 2025.503]"] ;
381 -> 382 ;
383 [label="X[30] <= 18.456\ngini = 0.146\nsamples = 391\nvalue = [174.943, 2025.503]"] ;
382 -> 383 ;
384 [label="X[36] <= 8.075\ngini = 0.146\nsamples = 390\nvalue = [174.438, 2025.503]"] ;
383 -> 384 ;
385 [label="X[25] <= 65.948\ngini = 0.146\nsamples = 389\nvalue = [173.932, 2025.503]"] ;
384 -> 385 ;
386 [label="X[34] <= 4269.165\ngini = 0.144\nsamples = 384\nvalue = [171.404, 2025.503]"] ;
385 -> 386 ;
387 [label="X[37] <= 0.007\ngini = 0.146\nsamples = 381\nvalue = [170.393, 1980.492]"] ;
386 -> 387 ;
388 [label="X[35] <= 29.93\ngini = 0.148\nsamples = 378\nvalue = [169.382, 1935.48]"] ;
387 -> 388 ;
389 [label="X[37] <= 0.004\ngini = 0.147\nsamples = 374\nvalue = [167.359, 1935.48]"] ;
388 -> 389 ;
390 [label="X[26] <= 1.875\ngini = 0.146\nsamples = 372\nvalue = [166.348, 1935.48]"] ;
389 -> 390 ;
391 [label="X[35] <= 24.723\ngini = 0.222\nsamples = 266\nvalue = [124.887, 855.212]"] ;
390 -> 391 ;
392 [label="X[31] <= 5.992\ngini = 0.22\nsamples = 263\nvalue = [123.37, 855.212]"] ;
391 -> 392 ;
393 [label="X[25] <= 40.924\ngini = 0.235\nsamples = 255\nvalue = [120.337, 765.19]"] ;
392 -> 393 ;
394 [label="X[35] <= 2.307\ngini = 0.229\nsamples = 247\nvalue = [116.292, 765.19]"] ;
393 -> 394 ;
395 [label="X[21] <= 0.223\ngini = 0.222\nsamples = 56\nvalue = [26.292, 180.045]"] ;
394 -> 395 ;
396 [label="X[36] <= 0.375\ngini = 0.415\nsamples = 38\nvalue = [18.708, 45.011]"] ;
395 -> 396 ;
397 [label="X[23] <= 13055.484\ngini = 0.405\nsamples = 36\nvalue = [17.697, 45.011]"] ;
396 -> 397 ;
398 [label="X[14] <= 0.146\ngini = 0.395\nsamples = 34\nvalue = [16.685, 45.011]"] ;
397 -> 398 ;
399 [label="X[30] <= 2.733\ngini = 0.28\nsamples = 19\nvalue = [9.101, 45.011]"] ;
398 -> 399 ;
400 [label="X[31] <= 1.386\ngini = 0.269\nsamples = 18\nvalue = [8.595, 45.011]"] ;
399 -> 400 ;
401 [label="gini = 0.0\nsamples = 12\nvalue = [6.067, 0.0]"] ;
400 -> 401 ;
402 [label="X[37] <= 0.001\ngini = 0.101\nsamples = 6\nvalue = [2.528, 45.011]"] ;
400 -> 402 ;
403 [label="X[36] <= 0.147\ngini = 0.022\nsamples = 2\nvalue = [0.506, 45.011]"] ;
402 -> 403 ;
404 [label="gini = 0.0\nsamples = 1\nvalue = [0.0, 45.011]"] ;
403 -> 404 ;
405 [label="gini = 0.0\nsamples = 1\nvalue = [0.506, 0.0]"] ;
403 -> 405 ;
406 [label="gini = 0.0\nsamples = 4\nvalue = [2.022, 0.0]"] ;
402 -> 406 ;
407 [label="gini = 0.0\nsamples = 1\nvalue = [0.506, 0.0]"] ;
399 -> 407 ;
408 [label="gini = 0.0\nsamples = 15\nvalue = [7.584, 0.0]"] ;
398 -> 408 ;
409 [label="gini = 0.0\nsamples = 2\nvalue = [1.011, 0.0]"] ;
397 -> 409 ;
410 [label="gini = 0.0\nsamples = 2\nvalue = [1.011, 0.0]"] ;
396 -> 410 ;
411 [label="X[35] <= 1.638\ngini = 0.101\nsamples = 18\nvalue = [7.584, 135.034]"] ;
395 -> 411 ;
412 [label="X[24] <= 304.909\ngini = 0.076\nsamples = 14\nvalue = [5.562, 135.034]"] ;
411 -> 412 ;
413 [label="X[34] <= 79.062\ngini = 0.056\nsamples = 11\nvalue = [4.045, 135.034]"] ;
412 -> 413 ;
414 [label="gini = -0.0\nsamples = 6\nvalue = [3.034, 0.0]"] ;
413 -> 414 ;
415 [label="X[35] <= 1.12\ngini = 0.015\nsamples = 5\nvalue = [1.011, 135.034]"] ;
413 -> 415 ;
416 [label="gini = 0.0\nsamples = 1\nvalue = [0.506, 0.0]"] ;
415 -> 416 ;
417 [label="X[35] <= 1.406\ngini = 0.007\nsamples = 4\nvalue = [0.506, 135.034]"] ;
415 -> 417 ;
418 [label="gini = 0.0\nsamples = 1\nvalue = [0.506, 0.0]"] ;
417 -> 418 ;
419 [label="gini = 0.0\nsamples = 3\nvalue = [0.0, 135.034]"] ;
417 -> 419 ;
420 [label="gini = -0.0\nsamples = 3\nvalue = [1.517, 0.0]"] ;
412 -> 420 ;
421 [label="gini = -0.0\nsamples = 4\nvalue = [2.022, 0.0]"] ;
411 -> 421 ;
422 [label="X[32] <= 0.658\ngini = 0.231\nsamples = 191\nvalue = [90.0, 585.145]"] ;
394 -> 422 ;
423 [label="X[25] <= 34.216\ngini = 0.365\nsamples = 175\nvalue = [85.449, 270.067]"] ;
422 -> 423 ;
424 [label="X[14] <= 0.35\ngini = 0.358\nsamples = 169\nvalue = [82.416, 270.067]"] ;
423 -> 424 ;
425 [label="X[22] <= 0.229\ngini = 0.437\nsamples = 130\nvalue = [64.213, 135.034]"] ;
424 -> 425 ;
426 [label="X[31] <= 3.17\ngini = 0.357\nsamples = 28\nvalue = [13.652, 45.011]"] ;
425 -> 426 ;
427 [label="X[30] <= 3.723\ngini = 0.35\nsamples = 27\nvalue = [13.146, 45.011]"] ;
426 -> 427 ;
428 [label="gini = 0.0\nsamples = 18\nvalue = [9.101, 0.0]"] ;
427 -> 428 ;
429 [label="X[36] <= 0.46\ngini = 0.151\nsamples = 9\nvalue = [4.045, 45.011]"] ;
427 -> 429 ;
430 [label="gini = 0.0\nsamples = 8\nvalue = [4.045, 0.0]"] ;
429 -> 430 ;
431 [label="gini = 0.0\nsamples = 1\nvalue = [0.0, 45.011]"] ;
429 -> 431 ;
432 [label="gini = 0.0\nsamples = 1\nvalue = [0.506, 0.0]"] ;
426 -> 432 ;
433 [label="X[35] <= 6.898\ngini = 0.461\nsamples = 102\nvalue = [50.562, 90.022]"] ;
425 -> 433 ;
434 [label="X[31] <= 0.631\ngini = 0.295\nsamples = 41\nvalue = [19.719, 90.022]"] ;
433 -> 434 ;
435 [label="X[36] <= 0.285\ngini = 0.371\nsamples = 30\nvalue = [14.663, 45.011]"] ;
434 -> 435 ;
436 [label="X[28] <= 0.378\ngini = 0.318\nsamples = 23\nvalue = [11.124, 45.011]"] ;
435 -> 436 ;
437 [label="gini = 0.0\nsamples = 10\nvalue = [5.056, 0.0]"] ;
436 -> 437 ;
438 [label="X[34] <= 327.41\ngini = 0.209\nsamples = 13\nvalue = [6.067, 45.011]"] ;
436 -> 438 ;
439 [label="X[30] <= 2.105\ngini = 0.151\nsamples = 9\nvalue = [4.045, 45.011]"] ;
438 -> 439 ;
440 [label="X[24] <= 174.853\ngini = 0.135\nsamples = 8\nvalue = [3.539, 45.011]"] ;
439 -> 440 ;
441 [label="gini = 0.0\nsamples = 5\nvalue = [2.528, 0.0]"] ;
440 -> 441 ;
442 [label="X[35] <= 3.012\ngini = 0.043\nsamples = 3\nvalue = [1.011, 45.011]"] ;
440 -> 442 ;
443 [label="gini = 0.0\nsamples = 1\nvalue = [0.506, 0.0]"] ;
442 -> 443 ;
444 [label="X[37] <= 0.001\ngini = 0.022\nsamples = 2\nvalue = [0.506, 45.011]"] ;
442 -> 444 ;
445 [label="gini = 0.0\nsamples = 1\nvalue = [0.506, 0.0]"] ;
444 -> 445 ;
446 [label="gini = 0.0\nsamples = 1\nvalue = [0.0, 45.011]"] ;
444 -> 446 ;
447 [label="gini = 0.0\nsamples = 1\nvalue = [0.506, 0.0]"] ;
439 -> 447 ;
448 [label="gini = 0.0\nsamples = 4\nvalue = [2.022, 0.0]"] ;
438 -> 448 ;
449 [label="gini = 0.0\nsamples = 7\nvalue = [3.539, 0.0]"] ;
435 -> 449 ;
450 [label="X[35] <= 2.852\ngini = 0.182\nsamples = 11\nvalue = [5.056, 45.011]"] ;
434 -> 450 ;
451 [label="gini = 0.0\nsamples = 2\nvalue = [1.011, 0.0]"] ;
450 -> 451 ;
452 [label="X[25] <= 4.545\ngini = 0.151\nsamples = 9\nvalue = [4.045, 45.011]"] ;
450 -> 452 ;
453 [label="X[24] <= 76.727\ngini = 0.043\nsamples = 3\nvalue = [1.011, 45.011]"] ;
452 -> 453 ;
454 [label="gini = 0.0\nsamples = 1\nvalue = [0.506, 0.0]"] ;
453 -> 454 ;
455 [label="X[34] <= 913.263\ngini = 0.022\nsamples = 2\nvalue = [0.506, 45.011]"] ;
453 -> 455 ;
456 [label="gini = 0.0\nsamples = 1\nvalue = [0.0, 45.011]"] ;
455 -> 456 ;
457 [label="gini = 0.0\nsamples = 1\nvalue = [0.506, 0.0]"] ;
455 -> 457 ;
458 [label="gini = 0.0\nsamples = 6\nvalue = [3.034, 0.0]"] ;
452 -> 458 ;
459 [label="gini = -0.0\nsamples = 61\nvalue = [30.843, 0.0]"] ;
433 -> 459 ;
460 [label="X[30] <= 5.149\ngini = 0.209\nsamples = 39\nvalue = [18.202, 135.034]"] ;
424 -> 460 ;
461 [label="X[28] <= 1.488\ngini = 0.28\nsamples = 38\nvalue = [18.202, 90.022]"] ;
460 -> 461 ;
462 [label="gini = 0.0\nsamples = 17\nvalue = [8.595, 0.0]"] ;
461 -> 462 ;
463 [label="X[37] <= 0.002\ngini = 0.174\nsamples = 21\nvalue = [9.607, 90.022]"] ;
461 -> 463 ;
464 [label="X[37] <= 0.0\ngini = 0.159\nsamples = 19\nvalue = [8.595, 90.022]"] ;
463 -> 464 ;
465 [label="gini = 0.0\nsamples = 2\nvalue = [1.011, 0.0]"] ;
464 -> 465 ;
466 [label="X[37] <= 0.002\ngini = 0.143\nsamples = 17\nvalue = [7.584, 90.022]"] ;
464 -> 466 ;
467 [label="X[25] <= 15.343\ngini = 0.135\nsamples = 16\nvalue = [7.079, 90.022]"] ;
466 -> 467 ;
468 [label="X[36] <= 2.449\ngini = 0.127\nsamples = 15\nvalue = [6.573, 90.022]"] ;
467 -> 468 ;
469 [label="X[35] <= 6.329\ngini = 0.222\nsamples = 14\nvalue = [6.573, 45.011]"] ;
468 -> 469 ;
470 [label="X[23] <= 5667.857\ngini = 0.118\nsamples = 7\nvalue = [3.034, 45.011]"] ;
469 -> 470 ;
471 [label="X[34] <= 144.782\ngini = 0.022\nsamples = 2\nvalue = [0.506, 45.011]"] ;
470 -> 471 ;
472 [label="gini = 0.0\nsamples = 1\nvalue = [0.506, 0.0]"] ;
471 -> 472 ;
473 [label="gini = 0.0\nsamples = 1\nvalue = [0.0, 45.011]"] ;
471 -> 473 ;
474 [label="gini = 0.0\nsamples = 5\nvalue = [2.528, 0.0]"] ;
470 -> 474 ;
475 [label="gini = 0.0\nsamples = 7\nvalue = [3.539, 0.0]"] ;
469 -> 475 ;
476 [label="gini = 0.0\nsamples = 1\nvalue = [0.0, 45.011]"] ;
468 -> 476 ;
477 [label="gini = -0.0\nsamples = 1\nvalue = [0.506, 0.0]"] ;
467 -> 477 ;
478 [label="gini = -0.0\nsamples = 1\nvalue = [0.506, 0.0]"] ;
466 -> 478 ;
479 [label="gini = -0.0\nsamples = 2\nvalue = [1.011, 0.0]"] ;
463 -> 479 ;
480 [label="gini = 0.0\nsamples = 1\nvalue = [0.0, 45.011]"] ;
460 -> 480 ;
481 [label="gini = 0.0\nsamples = 6\nvalue = [3.034, 0.0]"] ;
423 -> 481 ;
482 [label="X[25] <= 15.657\ngini = 0.028\nsamples = 16\nvalue = [4.551, 315.078]"] ;
422 -> 482 ;
483 [label="X[12] <= 0.139\ngini = 0.018\nsamples = 11\nvalue = [2.528, 270.067]"] ;
482 -> 483 ;
484 [label="X[37] <= 0.001\ngini = 0.043\nsamples = 3\nvalue = [1.011, 45.011]"] ;
483 -> 484 ;
485 [label="gini = 0.0\nsamples = 1\nvalue = [0.506, 0.0]"] ;
484 -> 485 ;
486 [label="X[28] <= 1.527\ngini = 0.022\nsamples = 2\nvalue = [0.506, 45.011]"] ;
484 -> 486 ;
487 [label="gini = 0.0\nsamples = 1\nvalue = [0.506, 0.0]"] ;
486 -> 487 ;
488 [label="gini = 0.0\nsamples = 1\nvalue = [0.0, 45.011]"] ;
486 -> 488 ;
489 [label="X[25] <= 5.248\ngini = 0.013\nsamples = 8\nvalue = [1.517, 225.056]"] ;
483 -> 489 ;
490 [label="X[36] <= 0.57\ngini = 0.006\nsamples = 5\nvalue = [0.506, 180.045]"] ;
489 -> 490 ;
491 [label="X[24] <= 67.091\ngini = 0.007\nsamples = 4\nvalue = [0.506, 135.034]"] ;
490 -> 491 ;
492 [label="gini = 0.0\nsamples = 2\nvalue = [0.0, 90.022]"] ;
491 -> 492 ;
493 [label="X[34] <= 305.492\ngini = 0.022\nsamples = 2\nvalue = [0.506, 45.011]"] ;
491 -> 493 ;
494 [label="gini = 0.0\nsamples = 1\nvalue = [0.0, 45.011]"] ;
493 -> 494 ;
495 [label="gini = 0.0\nsamples = 1\nvalue = [0.506, 0.0]"] ;
493 -> 495 ;
496 [label="gini = 0.0\nsamples = 1\nvalue = [0.0, 45.011]"] ;
490 -> 496 ;
497 [label="X[28] <= 2.209\ngini = 0.043\nsamples = 3\nvalue = [1.011, 45.011]"] ;
489 -> 497 ;
498 [label="gini = 0.0\nsamples = 1\nvalue = [0.506, 0.0]"] ;
497 -> 498 ;
499 [label="X[36] <= 0.169\ngini = 0.022\nsamples = 2\nvalue = [0.506, 45.011]"] ;
497 -> 499 ;
500 [label="gini = 0.0\nsamples = 1\nvalue = [0.0, 45.011]"] ;
499 -> 500 ;
501 [label="gini = 0.0\nsamples = 1\nvalue = [0.506, 0.0]"] ;
499 -> 501 ;
502 [label="X[36] <= 0.231\ngini = 0.082\nsamples = 5\nvalue = [2.022, 45.011]"] ;
482 -> 502 ;
503 [label="X[36] <= 0.173\ngini = 0.022\nsamples = 2\nvalue = [0.506, 45.011]"] ;
502 -> 503 ;
504 [label="gini = 0.0\nsamples = 1\nvalue = [0.506, 0.0]"] ;
503 -> 504 ;
505 [label="gini = 0.0\nsamples = 1\nvalue = [0.0, 45.011]"] ;
503 -> 505 ;
506 [label="gini = -0.0\nsamples = 3\nvalue = [1.517, 0.0]"] ;
502 -> 506 ;
507 [label="gini = 0.0\nsamples = 8\nvalue = [4.045, 0.0]"] ;
393 -> 507 ;
508 [label="X[21] <= 0.73\ngini = 0.063\nsamples = 8\nvalue = [3.034, 90.022]"] ;
392 -> 508 ;
509 [label="X[34] <= 427.512\ngini = 0.118\nsamples = 7\nvalue = [3.034, 45.011]"] ;
508 -> 509 ;
510 [label="gini = 0.0\nsamples = 3\nvalue = [1.517, 0.0]"] ;
509 -> 510 ;
511 [label="X[29] <= 11.875\ngini = 0.063\nsamples = 4\nvalue = [1.517, 45.011]"] ;
509 -> 511 ;
512 [label="X[29] <= 5.317\ngini = 0.043\nsamples = 3\nvalue = [1.011, 45.011]"] ;
511 -> 512 ;
513 [label="gini = 0.0\nsamples = 1\nvalue = [0.0, 45.011]"] ;
512 -> 513 ;
514 [label="gini = -0.0\nsamples = 2\nvalue = [1.011, 0.0]"] ;
512 -> 514 ;
515 [label="gini = 0.0\nsamples = 1\nvalue = [0.506, 0.0]"] ;
511 -> 515 ;
516 [label="gini = 0.0\nsamples = 1\nvalue = [0.0, 45.011]"] ;
508 -> 516 ;
517 [label="gini = 0.0\nsamples = 3\nvalue = [1.517, 0.0]"] ;
391 -> 517 ;
518 [label="X[35] <= 17.346\ngini = 0.071\nsamples = 106\nvalue = [41.461, 1080.268]"] ;
390 -> 518 ;
519 [label="X[34] <= 426.176\ngini = 0.066\nsamples = 100\nvalue = [38.427, 1080.268]"] ;
518 -> 519 ;
520 [label="X[25] <= 38.539\ngini = 0.055\nsamples = 65\nvalue = [23.764, 810.201]"] ;
519 -> 520 ;
521 [label="X[17] <= 0.802\ngini = 0.061\nsamples = 62\nvalue = [23.258, 720.179]"] ;
520 -> 521 ;
522 [label="X[21] <= 0.363\ngini = 0.057\nsamples = 59\nvalue = [21.742, 720.179]"] ;
521 -> 522 ;
523 [label="X[36] <= 0.313\ngini = 0.051\nsamples = 44\nvalue = [15.674, 585.145]"] ;
522 -> 523 ;
524 [label="X[23] <= 18013.352\ngini = 0.045\nsamples = 34\nvalue = [11.629, 495.123]"] ;
523 -> 524 ;
525 [label="X[30] <= 2.053\ngini = 0.043\nsamples = 27\nvalue = [9.101, 405.101]"] ;
524 -> 525 ;
526 [label="X[28] <= 2.227\ngini = 0.046\nsamples = 22\nvalue = [7.584, 315.078]"] ;
525 -> 526 ;
527 [label="X[23] <= 12145.612\ngini = 0.043\nsamples = 21\nvalue = [7.079, 315.078]"] ;
526 -> 527 ;
528 [label="X[28] <= 0.436\ngini = 0.055\nsamples = 18\nvalue = [6.573, 225.056]"] ;
527 -> 528 ;
529 [label="gini = 0.0\nsamples = 4\nvalue = [2.022, 0.0]"] ;
528 -> 529 ;
530 [label="X[24] <= 37.407\ngini = 0.039\nsamples = 14\nvalue = [4.551, 225.056]"] ;
528 -> 530 ;
531 [label="X[25] <= 6.561\ngini = 0.022\nsamples = 6\nvalue = [1.517, 135.034]"] ;
530 -> 531 ;
532 [label="X[34] <= 367.619\ngini = 0.033\nsamples = 5\nvalue = [1.517, 90.022]"] ;
531 -> 532 ;
533 [label="X[34] <= 50.301\ngini = 0.022\nsamples = 4\nvalue = [1.011, 90.022]"] ;
532 -> 533 ;
534 [label="gini = 0.0\nsamples = 1\nvalue = [0.506, 0.0]"] ;
533 -> 534 ;
535 [label="X[35] <= 0.777\ngini = 0.011\nsamples = 3\nvalue = [0.506, 90.022]"] ;
533 -> 535 ;
536 [label="X[12] <= 0.441\ngini = 0.022\nsamples = 2\nvalue = [0.506, 45.011]"] ;
535 -> 536 ;
537 [label="gini = 0.0\nsamples = 1\nvalue = [0.0, 45.011]"] ;
536 -> 537 ;
538 [label="gini = 0.0\nsamples = 1\nvalue = [0.506, 0.0]"] ;
536 -> 538 ;
539 [label="gini = 0.0\nsamples = 1\nvalue = [0.0, 45.011]"] ;
535 -> 539 ;
540 [label="gini = -0.0\nsamples = 1\nvalue = [0.506, 0.0]"] ;
532 -> 540 ;
541 [label="gini = 0.0\nsamples = 1\nvalue = [0.0, 45.011]"] ;
531 -> 541 ;
542 [label="X[34] <= 137.128\ngini = 0.063\nsamples = 8\nvalue = [3.034, 90.022]"] ;
530 -> 542 ;
543 [label="X[25] <= 9.783\ngini = 0.063\nsamples = 4\nvalue = [1.517, 45.011]"] ;
542 -> 543 ;
544 [label="gini = 0.0\nsamples = 3\nvalue = [1.517, 0.0]"] ;
543 -> 544 ;
545 [label="gini = 0.0\nsamples = 1\nvalue = [0.0, 45.011]"] ;
543 -> 545 ;
546 [label="X[25] <= 4.533\ngini = 0.063\nsamples = 4\nvalue = [1.517, 45.011]"] ;
542 -> 546 ;
547 [label="gini = 0.0\nsamples = 2\nvalue = [1.011, 0.0]"] ;
546 -> 547 ;
548 [label="X[37] <= 0.001\ngini = 0.022\nsamples = 2\nvalue = [0.506, 45.011]"] ;
546 -> 548 ;
549 [label="gini = 0.0\nsamples = 1\nvalue = [0.506, 0.0]"] ;
548 -> 549 ;
550 [label="gini = 0.0\nsamples = 1\nvalue = [0.0, 45.011]"] ;
548 -> 550 ;
551 [label="X[24] <= 291.759\ngini = 0.011\nsamples = 3\nvalue = [0.506, 90.022]"] ;
527 -> 551 ;
552 [label="gini = 0.0\nsamples = 2\nvalue = [0.0, 90.022]"] ;
551 -> 552 ;
553 [label="gini = -0.0\nsamples = 1\nvalue = [0.506, 0.0]"] ;
551 -> 553 ;
554 [label="gini = -0.0\nsamples = 1\nvalue = [0.506, 0.0]"] ;
526 -> 554 ;
555 [label="X[35] <= 3.49\ngini = 0.033\nsamples = 5\nvalue = [1.517, 90.022]"] ;
525 -> 555 ;
556 [label="gini = 0.0\nsamples = 1\nvalue = [0.0, 45.011]"] ;
555 -> 556 ;
557 [label="X[35] <= 4.776\ngini = 0.063\nsamples = 4\nvalue = [1.517, 45.011]"] ;
555 -> 557 ;
558 [label="X[34] <= 358.138\ngini = 0.022\nsamples = 2\nvalue = [0.506, 45.011]"] ;
557 -> 558 ;
559 [label="gini = 0.0\nsamples = 1\nvalue = [0.0, 45.011]"] ;
558 -> 559 ;
560 [label="gini = 0.0\nsamples = 1\nvalue = [0.506, 0.0]"] ;
558 -> 560 ;
561 [label="gini = 0.0\nsamples = 2\nvalue = [1.011, 0.0]"] ;
557 -> 561 ;
562 [label="X[28] <= 0.854\ngini = 0.053\nsamples = 7\nvalue = [2.528, 90.022]"] ;
524 -> 562 ;
563 [label="gini = 0.0\nsamples = 2\nvalue = [1.011, 0.0]"] ;
562 -> 563 ;
564 [label="X[24] <= 531.828\ngini = 0.033\nsamples = 5\nvalue = [1.517, 90.022]"] ;
562 -> 564 ;
565 [label="gini = 0.0\nsamples = 2\nvalue = [1.011, 0.0]"] ;
564 -> 565 ;
566 [label="X[34] <= 126.024\ngini = 0.011\nsamples = 3\nvalue = [0.506, 90.022]"] ;
564 -> 566 ;
567 [label="gini = 0.0\nsamples = 2\nvalue = [0.0, 90.022]"] ;
566 -> 567 ;
568 [label="gini = -0.0\nsamples = 1\nvalue = [0.506, 0.0]"] ;
566 -> 568 ;
569 [label="X[31] <= 0.782\ngini = 0.082\nsamples = 10\nvalue = [4.045, 90.022]"] ;
523 -> 569 ;
570 [label="gini = 0.0\nsamples = 4\nvalue = [2.022, 0.0]"] ;
569 -> 570 ;
571 [label="X[29] <= 4.696\ngini = 0.043\nsamples = 6\nvalue = [2.022, 90.022]"] ;
569 -> 571 ;
572 [label="X[37] <= 0.001\ngini = 0.063\nsamples = 4\nvalue = [1.517, 45.011]"] ;
571 -> 572 ;
573 [label="X[35] <= 4.671\ngini = 0.022\nsamples = 2\nvalue = [0.506, 45.011]"] ;
572 -> 573 ;
574 [label="gini = 0.0\nsamples = 1\nvalue = [0.0, 45.011]"] ;
573 -> 574 ;
575 [label="gini = 0.0\nsamples = 1\nvalue = [0.506, 0.0]"] ;
573 -> 575 ;
576 [label="gini = 0.0\nsamples = 2\nvalue = [1.011, 0.0]"] ;
572 -> 576 ;
577 [label="X[25] <= 31.564\ngini = 0.022\nsamples = 2\nvalue = [0.506, 45.011]"] ;
571 -> 577 ;
578 [label="gini = 0.0\nsamples = 1\nvalue = [0.506, 0.0]"] ;
577 -> 578 ;
579 [label="gini = 0.0\nsamples = 1\nvalue = [0.0, 45.011]"] ;
577 -> 579 ;
580 [label="X[31] <= 1.246\ngini = 0.082\nsamples = 15\nvalue = [6.067, 135.034]"] ;
522 -> 580 ;
581 [label="gini = 0.0\nsamples = 5\nvalue = [2.528, 0.0]"] ;
580 -> 581 ;
582 [label="X[24] <= 689.288\ngini = 0.05\nsamples = 10\nvalue = [3.539, 135.034]"] ;
580 -> 582 ;
583 [label="X[36] <= 0.113\ngini = 0.073\nsamples = 9\nvalue = [3.539, 90.022]"] ;
582 -> 583 ;
584 [label="gini = 0.0\nsamples = 4\nvalue = [2.022, 0.0]"] ;
583 -> 584 ;
585 [label="X[32] <= 1.605\ngini = 0.033\nsamples = 5\nvalue = [1.517, 90.022]"] ;
583 -> 585 ;
586 [label="X[35] <= 2.059\ngini = 0.022\nsamples = 4\nvalue = [1.011, 90.022]"] ;
585 -> 586 ;
587 [label="gini = 0.0\nsamples = 1\nvalue = [0.0, 45.011]"] ;
586 -> 587 ;
588 [label="X[24] <= 460.468\ngini = 0.043\nsamples = 3\nvalue = [1.011, 45.011]"] ;
586 -> 588 ;
589 [label="gini = 0.0\nsamples = 2\nvalue = [1.011, 0.0]"] ;
588 -> 589 ;
590 [label="gini = 0.0\nsamples = 1\nvalue = [0.0, 45.011]"] ;
588 -> 590 ;
591 [label="gini = -0.0\nsamples = 1\nvalue = [0.506, 0.0]"] ;
585 -> 591 ;
592 [label="gini = 0.0\nsamples = 1\nvalue = [0.0, 45.011]"] ;
582 -> 592 ;
593 [label="gini = -0.0\nsamples = 3\nvalue = [1.517, 0.0]"] ;
521 -> 593 ;
594 [label="X[32] <= 1.05\ngini = 0.011\nsamples = 3\nvalue = [0.506, 90.022]"] ;
520 -> 594 ;
595 [label="X[36] <= 0.125\ngini = 0.022\nsamples = 2\nvalue = [0.506, 45.011]"] ;
594 -> 595 ;
596 [label="gini = 0.0\nsamples = 1\nvalue = [0.506, 0.0]"] ;
595 -> 596 ;
597 [label="gini = 0.0\nsamples = 1\nvalue = [0.0, 45.011]"] ;
595 -> 597 ;
598 [label="gini = 0.0\nsamples = 1\nvalue = [0.0, 45.011]"] ;
594 -> 598 ;
599 [label="X[31] <= 1.461\ngini = 0.098\nsamples = 35\nvalue = [14.663, 270.067]"] ;
519 -> 599 ;
600 [label="X[21] <= 0.592\ngini = 0.258\nsamples = 17\nvalue = [8.09, 45.011]"] ;
599 -> 600 ;
601 [label="X[30] <= 4.78\ngini = 0.247\nsamples = 16\nvalue = [7.584, 45.011]"] ;
600 -> 601 ;
602 [label="X[28] <= 1.65\ngini = 0.222\nsamples = 14\nvalue = [6.573, 45.011]"] ;
601 -> 602 ;
603 [label="gini = 0.0\nsamples = 4\nvalue = [2.022, 0.0]"] ;
602 -> 603 ;
604 [label="X[36] <= 0.901\ngini = 0.167\nsamples = 10\nvalue = [4.551, 45.011]"] ;
602 -> 604 ;
605 [label="X[24] <= 195.109\ngini = 0.118\nsamples = 7\nvalue = [3.034, 45.011]"] ;
604 -> 605 ;
606 [label="X[14] <= 0.36\ngini = 0.063\nsamples = 4\nvalue = [1.517, 45.011]"] ;
605 -> 606 ;
607 [label="X[35] <= 5.776\ngini = 0.043\nsamples = 3\nvalue = [1.011, 45.011]"] ;
606 -> 607 ;
608 [label="gini = 0.0\nsamples = 1\nvalue = [0.0, 45.011]"] ;
607 -> 608 ;
609 [label="gini = -0.0\nsamples = 2\nvalue = [1.011, 0.0]"] ;
607 -> 609 ;
610 [label="gini = 0.0\nsamples = 1\nvalue = [0.506, 0.0]"] ;
606 -> 610 ;
611 [label="gini = 0.0\nsamples = 3\nvalue = [1.517, 0.0]"] ;
605 -> 611 ;
612 [label="gini = 0.0\nsamples = 3\nvalue = [1.517, 0.0]"] ;
604 -> 612 ;
613 [label="gini = 0.0\nsamples = 2\nvalue = [1.011, 0.0]"] ;
601 -> 613 ;
614 [label="gini = 0.0\nsamples = 1\nvalue = [0.506, 0.0]"] ;
600 -> 614 ;
615 [label="X[36] <= 1.377\ngini = 0.055\nsamples = 18\nvalue = [6.573, 225.056]"] ;
599 -> 615 ;
616 [label="X[23] <= 146841.416\ngini = 0.051\nsamples = 17\nvalue = [6.067, 225.056]"] ;
615 -> 616 ;
617 [label="X[35] <= 16.045\ngini = 0.047\nsamples = 16\nvalue = [5.562, 225.056]"] ;
616 -> 617 ;
618 [label="X[30] <= 3.932\ngini = 0.043\nsamples = 15\nvalue = [5.056, 225.056]"] ;
617 -> 618 ;
619 [label="X[25] <= 4.823\ngini = 0.063\nsamples = 12\nvalue = [4.551, 135.034]"] ;
618 -> 619 ;
620 [label="X[12] <= 0.219\ngini = 0.082\nsamples = 10\nvalue = [4.045, 90.022]"] ;
619 -> 620 ;
621 [label="X[23] <= 29178.663\ngini = 0.082\nsamples = 5\nvalue = [2.022, 45.011]"] ;
620 -> 621 ;
622 [label="gini = 0.0\nsamples = 4\nvalue = [2.022, 0.0]"] ;
621 -> 622 ;
623 [label="gini = 0.0\nsamples = 1\nvalue = [0.0, 45.011]"] ;
621 -> 623 ;
624 [label="X[23] <= 9307.534\ngini = 0.082\nsamples = 5\nvalue = [2.022, 45.011]"] ;
620 -> 624 ;
625 [label="X[36] <= 0.82\ngini = 0.063\nsamples = 4\nvalue = [1.517, 45.011]"] ;
624 -> 625 ;
626 [label="X[23] <= 6400.246\ngini = 0.043\nsamples = 3\nvalue = [1.011, 45.011]"] ;
625 -> 626 ;
627 [label="gini = 0.0\nsamples = 2\nvalue = [1.011, 0.0]"] ;
626 -> 627 ;
628 [label="gini = 0.0\nsamples = 1\nvalue = [0.0, 45.011]"] ;
626 -> 628 ;
629 [label="gini = 0.0\nsamples = 1\nvalue = [0.506, 0.0]"] ;
625 -> 629 ;
630 [label="gini = 0.0\nsamples = 1\nvalue = [0.506, 0.0]"] ;
624 -> 630 ;
631 [label="X[24] <= 141.899\ngini = 0.022\nsamples = 2\nvalue = [0.506, 45.011]"] ;
619 -> 631 ;
632 [label="gini = 0.0\nsamples = 1\nvalue = [0.506, 0.0]"] ;
631 -> 632 ;
633 [label="gini = 0.0\nsamples = 1\nvalue = [0.0, 45.011]"] ;
631 -> 633 ;
634 [label="X[35] <= 10.379\ngini = 0.011\nsamples = 3\nvalue = [0.506, 90.022]"] ;
618 -> 634 ;
635 [label="gini = 0.0\nsamples = 1\nvalue = [0.0, 45.011]"] ;
634 -> 635 ;
636 [label="X[23] <= 64145.023\ngini = 0.022\nsamples = 2\nvalue = [0.506, 45.011]"] ;
634 -> 636 ;
637 [label="gini = 0.0\nsamples = 1\nvalue = [0.506, 0.0]"] ;
636 -> 637 ;
638 [label="gini = 0.0\nsamples = 1\nvalue = [0.0, 45.011]"] ;
636 -> 638 ;
639 [label="gini = -0.0\nsamples = 1\nvalue = [0.506, 0.0]"] ;
617 -> 639 ;
640 [label="gini = -0.0\nsamples = 1\nvalue = [0.506, 0.0]"] ;
616 -> 640 ;
641 [label="gini = -0.0\nsamples = 1\nvalue = [0.506, 0.0]"] ;
615 -> 641 ;
642 [label="gini = -0.0\nsamples = 6\nvalue = [3.034, 0.0]"] ;
518 -> 642 ;
643 [label="gini = 0.0\nsamples = 2\nvalue = [1.011, 0.0]"] ;
389 -> 643 ;
644 [label="gini = 0.0\nsamples = 4\nvalue = [2.022, 0.0]"] ;
388 -> 644 ;
645 [label="X[37] <= 0.01\ngini = 0.043\nsamples = 3\nvalue = [1.011, 45.011]"] ;
387 -> 645 ;
646 [label="gini = 0.0\nsamples = 2\nvalue = [1.011, 0.0]"] ;
645 -> 646 ;
647 [label="gini = 0.0\nsamples = 1\nvalue = [0.0, 45.011]"] ;
645 -> 647 ;
648 [label="X[36] <= 5.074\ngini = 0.043\nsamples = 3\nvalue = [1.011, 45.011]"] ;
386 -> 648 ;
649 [label="gini = 0.0\nsamples = 1\nvalue = [0.506, 0.0]"] ;
648 -> 649 ;
650 [label="X[37] <= 0.001\ngini = 0.022\nsamples = 2\nvalue = [0.506, 45.011]"] ;
648 -> 650 ;
651 [label="gini = 0.0\nsamples = 1\nvalue = [0.0, 45.011]"] ;
650 -> 651 ;
652 [label="gini = 0.0\nsamples = 1\nvalue = [0.506, 0.0]"] ;
650 -> 652 ;
653 [label="gini = 0.0\nsamples = 5\nvalue = [2.528, 0.0]"] ;
385 -> 653 ;
654 [label="gini = 0.0\nsamples = 1\nvalue = [0.506, 0.0]"] ;
384 -> 654 ;
655 [label="gini = 0.0\nsamples = 1\nvalue = [0.506, 0.0]"] ;
383 -> 655 ;
656 [label="gini = 0.0\nsamples = 1\nvalue = [0.506, 0.0]"] ;
382 -> 656 ;
657 [label="X[12] <= 0.31\ngini = 0.113\nsamples = 120\nvalue = [51.573, 810.201]"] ;
381 -> 657 ;
658 [label="X[35] <= 1.959\ngini = 0.167\nsamples = 30\nvalue = [13.652, 135.034]"] ;
657 -> 658 ;
659 [label="gini = 0.0\nsamples = 8\nvalue = [4.045, 0.0]"] ;
658 -> 659 ;
660 [label="X[31] <= 0.892\ngini = 0.124\nsamples = 22\nvalue = [9.607, 135.034]"] ;
658 -> 660 ;
661 [label="X[34] <= 950.964\ngini = 0.151\nsamples = 9\nvalue = [4.045, 45.011]"] ;
660 -> 661 ;
662 [label="gini = 0.0\nsamples = 8\nvalue = [4.045, 0.0]"] ;
661 -> 662 ;
663 [label="gini = 0.0\nsamples = 1\nvalue = [0.0, 45.011]"] ;
661 -> 663 ;
664 [label="X[29] <= 15.602\ngini = 0.11\nsamples = 13\nvalue = [5.562, 90.022]"] ;
660 -> 664 ;
665 [label="X[23] <= 8186.727\ngini = 0.082\nsamples = 10\nvalue = [4.045, 90.022]"] ;
664 -> 665 ;
666 [label="gini = 0.0\nsamples = 2\nvalue = [1.011, 0.0]"] ;
665 -> 666 ;
667 [label="X[37] <= 0.003\ngini = 0.063\nsamples = 8\nvalue = [3.034, 90.022]"] ;
665 -> 667 ;
668 [label="X[26] <= 0.21\ngini = 0.053\nsamples = 7\nvalue = [2.528, 90.022]"] ;
667 -> 668 ;
669 [label="X[24] <= 682.829\ngini = 0.022\nsamples = 4\nvalue = [1.011, 90.022]"] ;
668 -> 669 ;
670 [label="gini = 0.0\nsamples = 2\nvalue = [1.011, 0.0]"] ;
669 -> 670 ;
671 [label="gini = -0.0\nsamples = 2\nvalue = [0.0, 90.022]"] ;
669 -> 671 ;
672 [label="gini = -0.0\nsamples = 3\nvalue = [1.517, 0.0]"] ;
668 -> 672 ;
673 [label="gini = -0.0\nsamples = 1\nvalue = [0.506, 0.0]"] ;
667 -> 673 ;
674 [label="gini = -0.0\nsamples = 3\nvalue = [1.517, 0.0]"] ;
664 -> 674 ;
675 [label="X[18] <= 0.514\ngini = 0.101\nsamples = 90\nvalue = [37.921, 675.168]"] ;
657 -> 675 ;
676 [label="X[26] <= 0.43\ngini = 0.1\nsamples = 89\nvalue = [37.416, 675.168]"] ;
675 -> 676 ;
677 [label="X[21] <= 0.351\ngini = 0.243\nsamples = 47\nvalue = [22.247, 135.034]"] ;
676 -> 677 ;
678 [label="X[32] <= 0.782\ngini = 0.214\nsamples = 40\nvalue = [18.708, 135.034]"] ;
677 -> 678 ;
679 [label="gini = -0.0\nsamples = 33\nvalue = [16.685, 0.0]"] ;
678 -> 679 ;
680 [label="X[34] <= 430.784\ngini = 0.029\nsamples = 7\nvalue = [2.022, 135.034]"] ;
678 -> 680 ;
681 [label="X[23] <= 83984.304\ngini = 0.043\nsamples = 3\nvalue = [1.011, 45.011]"] ;
680 -> 681 ;
682 [label="X[29] <= 16.324\ngini = 0.022\nsamples = 2\nvalue = [0.506, 45.011]"] ;
681 -> 682 ;
683 [label="gini = 0.0\nsamples = 1\nvalue = [0.0, 45.011]"] ;
682 -> 683 ;
684 [label="gini = 0.0\nsamples = 1\nvalue = [0.506, 0.0]"] ;
682 -> 684 ;
685 [label="gini = 0.0\nsamples = 1\nvalue = [0.506, 0.0]"] ;
681 -> 685 ;
686 [label="X[24] <= 1667.703\ngini = 0.022\nsamples = 4\nvalue = [1.011, 90.022]"] ;
680 -> 686 ;
687 [label="X[31] <= 1.774\ngini = 0.011\nsamples = 3\nvalue = [0.506, 90.022]"] ;
686 -> 687 ;
688 [label="gini = 0.0\nsamples = 1\nvalue = [0.506, 0.0]"] ;
687 -> 688 ;
689 [label="gini = 0.0\nsamples = 2\nvalue = [0.0, 90.022]"] ;
687 -> 689 ;
690 [label="gini = -0.0\nsamples = 1\nvalue = [0.506, 0.0]"] ;
686 -> 690 ;
691 [label="gini = -0.0\nsamples = 7\nvalue = [3.539, 0.0]"] ;
677 -> 691 ;
692 [label="X[36] <= 1.168\ngini = 0.053\nsamples = 42\nvalue = [15.168, 540.134]"] ;
676 -> 692 ;
693 [label="X[25] <= 145.96\ngini = 0.05\nsamples = 40\nvalue = [14.157, 540.134]"] ;
692 -> 693 ;
694 [label="X[23] <= 192223.019\ngini = 0.048\nsamples = 39\nvalue = [13.652, 540.134]"] ;
693 -> 694 ;
695 [label="X[37] <= 0.005\ngini = 0.043\nsamples = 36\nvalue = [12.135, 540.134]"] ;
694 -> 695 ;
696 [label="X[24] <= 1017.058\ngini = 0.041\nsamples = 35\nvalue = [11.629, 540.134]"] ;
695 -> 696 ;
697 [label="X[30] <= 4.244\ngini = 0.031\nsamples = 29\nvalue = [8.595, 540.134]"] ;
696 -> 697 ;
698 [label="X[32] <= 0.962\ngini = 0.024\nsamples = 19\nvalue = [5.056, 405.101]"] ;
697 -> 698 ;
699 [label="X[24] <= 672.844\ngini = 0.043\nsamples = 12\nvalue = [4.045, 180.045]"] ;
698 -> 699 ;
700 [label="X[23] <= 28455.858\ngini = 0.038\nsamples = 11\nvalue = [3.539, 180.045]"] ;
699 -> 700 ;
701 [label="X[28] <= 3.621\ngini = 0.033\nsamples = 10\nvalue = [3.034, 180.045]"] ;
700 -> 701 ;
702 [label="X[37] <= 0.002\ngini = 0.053\nsamples = 7\nvalue = [2.528, 90.022]"] ;
701 -> 702 ;
703 [label="X[31] <= 2.804\ngini = 0.043\nsamples = 6\nvalue = [2.022, 90.022]"] ;
702 -> 703 ;
704 [label="X[28] <= 1.371\ngini = 0.063\nsamples = 4\nvalue = [1.517, 45.011]"] ;
703 -> 704 ;
705 [label="gini = 0.0\nsamples = 1\nvalue = [0.506, 0.0]"] ;
704 -> 705 ;
706 [label="X[25] <= 7.291\ngini = 0.043\nsamples = 3\nvalue = [1.011, 45.011]"] ;
704 -> 706 ;
707 [label="X[23] <= 7159.165\ngini = 0.022\nsamples = 2\nvalue = [0.506, 45.011]"] ;
706 -> 707 ;
708 [label="gini = 0.0\nsamples = 1\nvalue = [0.506, 0.0]"] ;
707 -> 708 ;
709 [label="gini = 0.0\nsamples = 1\nvalue = [0.0, 45.011]"] ;
707 -> 709 ;
710 [label="gini = 0.0\nsamples = 1\nvalue = [0.506, 0.0]"] ;
706 -> 710 ;
711 [label="X[23] <= 26555.893\ngini = 0.022\nsamples = 2\nvalue = [0.506, 45.011]"] ;
703 -> 711 ;
712 [label="gini = 0.0\nsamples = 1\nvalue = [0.506, 0.0]"] ;
711 -> 712 ;
713 [label="gini = 0.0\nsamples = 1\nvalue = [0.0, 45.011]"] ;
711 -> 713 ;
714 [label="gini = -0.0\nsamples = 1\nvalue = [0.506, 0.0]"] ;
702 -> 714 ;
715 [label="X[24] <= 130.981\ngini = 0.011\nsamples = 3\nvalue = [0.506, 90.022]"] ;
701 -> 715 ;
716 [label="gini = 0.0\nsamples = 1\nvalue = [0.0, 45.011]"] ;
715 -> 716 ;
717 [label="X[17] <= 0.376\ngini = 0.022\nsamples = 2\nvalue = [0.506, 45.011]"] ;
715 -> 717 ;
718 [label="gini = 0.0\nsamples = 1\nvalue = [0.506, 0.0]"] ;
717 -> 718 ;
719 [label="gini = 0.0\nsamples = 1\nvalue = [0.0, 45.011]"] ;
717 -> 719 ;
720 [label="gini = -0.0\nsamples = 1\nvalue = [0.506, 0.0]"] ;
700 -> 720 ;
721 [label="gini = -0.0\nsamples = 1\nvalue = [0.506, 0.0]"] ;
699 -> 721 ;
722 [label="X[31] <= 2.578\ngini = 0.009\nsamples = 7\nvalue = [1.011, 225.056]"] ;
698 -> 722 ;
723 [label="X[34] <= 726.584\ngini = 0.015\nsamples = 5\nvalue = [1.011, 135.034]"] ;
722 -> 723 ;
724 [label="X[25] <= 23.164\ngini = 0.022\nsamples = 4\nvalue = [1.011, 90.022]"] ;
723 -> 724 ;
725 [label="gini = 0.0\nsamples = 2\nvalue = [0.0, 90.022]"] ;
724 -> 725 ;
726 [label="gini = 0.0\nsamples = 2\nvalue = [1.011, 0.0]"] ;
724 -> 726 ;
727 [label="gini = 0.0\nsamples = 1\nvalue = [0.0, 45.011]"] ;
723 -> 727 ;
728 [label="gini = 0.0\nsamples = 2\nvalue = [0.0, 90.022]"] ;
722 -> 728 ;
729 [label="X[28] <= 1.915\ngini = 0.05\nsamples = 10\nvalue = [3.539, 135.034]"] ;
697 -> 729 ;
730 [label="gini = 0.0\nsamples = 1\nvalue = [0.506, 0.0]"] ;
729 -> 730 ;
731 [label="X[30] <= 8.335\ngini = 0.043\nsamples = 9\nvalue = [3.034, 135.034]"] ;
729 -> 731 ;
732 [label="X[21] <= 0.527\ngini = 0.063\nsamples = 8\nvalue = [3.034, 90.022]"] ;
731 -> 732 ;
733 [label="X[36] <= 0.436\ngini = 0.118\nsamples = 7\nvalue = [3.034, 45.011]"] ;
732 -> 733 ;
734 [label="gini = 0.0\nsamples = 4\nvalue = [2.022, 0.0]"] ;
733 -> 734 ;
735 [label="X[23] <= 12933.617\ngini = 0.043\nsamples = 3\nvalue = [1.011, 45.011]"] ;
733 -> 735 ;
736 [label="gini = 0.0\nsamples = 1\nvalue = [0.506, 0.0]"] ;
735 -> 736 ;
737 [label="X[37] <= 0.002\ngini = 0.022\nsamples = 2\nvalue = [0.506, 45.011]"] ;
735 -> 737 ;
738 [label="gini = 0.0\nsamples = 1\nvalue = [0.506, 0.0]"] ;
737 -> 738 ;
739 [label="gini = 0.0\nsamples = 1\nvalue = [0.0, 45.011]"] ;
737 -> 739 ;
740 [label="gini = 0.0\nsamples = 1\nvalue = [0.0, 45.011]"] ;
732 -> 740 ;
741 [label="gini = 0.0\nsamples = 1\nvalue = [0.0, 45.011]"] ;
731 -> 741 ;
742 [label="gini = -0.0\nsamples = 6\nvalue = [3.034, 0.0]"] ;
696 -> 742 ;
743 [label="gini = -0.0\nsamples = 1\nvalue = [0.506, 0.0]"] ;
695 -> 743 ;
744 [label="gini = -0.0\nsamples = 3\nvalue = [1.517, 0.0]"] ;
694 -> 744 ;
745 [label="gini = -0.0\nsamples = 1\nvalue = [0.506, 0.0]"] ;
693 -> 745 ;
746 [label="gini = -0.0\nsamples = 2\nvalue = [1.011, 0.0]"] ;
692 -> 746 ;
747 [label="gini = -0.0\nsamples = 1\nvalue = [0.506, 0.0]"] ;
675 -> 747 ;
748 [label="X[24] <= 1433.923\ngini = 0.071\nsamples = 66\nvalue = [25.786, 675.168]"] ;
94 -> 748 ;
749 [label="X[32] <= 0.081\ngini = 0.056\nsamples = 55\nvalue = [20.225, 675.168]"] ;
748 -> 749 ;
750 [label="X[14] <= 0.509\ngini = 0.167\nsamples = 40\nvalue = [18.202, 180.045]"] ;
749 -> 750 ;
751 [label="X[31] <= 4.867\ngini = 0.167\nsamples = 30\nvalue = [13.652, 135.034]"] ;
750 -> 751 ;
752 [label="X[37] <= 0.004\ngini = 0.146\nsamples = 26\nvalue = [11.629, 135.034]"] ;
751 -> 752 ;
753 [label="X[29] <= 24.998\ngini = 0.141\nsamples = 25\nvalue = [11.124, 135.034]"] ;
752 -> 753 ;
754 [label="X[22] <= 0.863\ngini = 0.135\nsamples = 24\nvalue = [10.618, 135.034]"] ;
753 -> 754 ;
755 [label="gini = 0.0\nsamples = 1\nvalue = [0.506, 0.0]"] ;
754 -> 755 ;
756 [label="X[25] <= 66.587\ngini = 0.13\nsamples = 23\nvalue = [10.112, 135.034]"] ;
754 -> 756 ;
757 [label="X[25] <= 22.485\ngini = 0.118\nsamples = 21\nvalue = [9.101, 135.034]"] ;
756 -> 757 ;
758 [label="gini = 0.0\nsamples = 6\nvalue = [3.034, 0.0]"] ;
757 -> 758 ;
759 [label="X[34] <= 373.525\ngini = 0.082\nsamples = 15\nvalue = [6.067, 135.034]"] ;
757 -> 759 ;
760 [label="X[29] <= 7.108\ngini = 0.07\nsamples = 13\nvalue = [5.056, 135.034]"] ;
759 -> 760 ;
761 [label="gini = 0.0\nsamples = 2\nvalue = [1.011, 0.0]"] ;
760 -> 761 ;
762 [label="X[31] <= 1.759\ngini = 0.056\nsamples = 11\nvalue = [4.045, 135.034]"] ;
760 -> 762 ;
763 [label="X[30] <= 10.971\ngini = 0.022\nsamples = 4\nvalue = [1.011, 90.022]"] ;
762 -> 763 ;
764 [label="X[24] <= 1049.032\ngini = 0.011\nsamples = 3\nvalue = [0.506, 90.022]"] ;
763 -> 764 ;
765 [label="X[34] <= 267.785\ngini = 0.022\nsamples = 2\nvalue = [0.506, 45.011]"] ;
764 -> 765 ;
766 [label="gini = 0.0\nsamples = 1\nvalue = [0.506, 0.0]"] ;
765 -> 766 ;
767 [label="gini = 0.0\nsamples = 1\nvalue = [0.0, 45.011]"] ;
765 -> 767 ;
768 [label="gini = 0.0\nsamples = 1\nvalue = [0.0, 45.011]"] ;
764 -> 768 ;
769 [label="gini = -0.0\nsamples = 1\nvalue = [0.506, 0.0]"] ;
763 -> 769 ;
770 [label="X[25] <= 32.234\ngini = 0.118\nsamples = 7\nvalue = [3.034, 45.011]"] ;
762 -> 770 ;
771 [label="gini = 0.0\nsamples = 1\nvalue = [0.0, 45.011]"] ;
770 -> 771 ;
772 [label="gini = 0.0\nsamples = 6\nvalue = [3.034, 0.0]"] ;
770 -> 772 ;
773 [label="gini = -0.0\nsamples = 2\nvalue = [1.011, 0.0]"] ;
759 -> 773 ;
774 [label="gini = -0.0\nsamples = 2\nvalue = [1.011, 0.0]"] ;
756 -> 774 ;
775 [label="gini = -0.0\nsamples = 1\nvalue = [0.506, 0.0]"] ;
753 -> 775 ;
776 [label="gini = -0.0\nsamples = 1\nvalue = [0.506, 0.0]"] ;
752 -> 776 ;
777 [label="gini = -0.0\nsamples = 4\nvalue = [2.022, 0.0]"] ;
751 -> 777 ;
778 [label="X[29] <= 14.823\ngini = 0.167\nsamples = 10\nvalue = [4.551, 45.011]"] ;
750 -> 778 ;
779 [label="X[29] <= 7.799\ngini = 0.135\nsamples = 8\nvalue = [3.539, 45.011]"] ;
778 -> 779 ;
780 [label="gini = 0.0\nsamples = 2\nvalue = [1.011, 0.0]"] ;
779 -> 780 ;
781 [label="X[23] <= 25803.342\ngini = 0.101\nsamples = 6\nvalue = [2.528, 45.011]"] ;
779 -> 781 ;
782 [label="X[30] <= 8.121\ngini = 0.082\nsamples = 5\nvalue = [2.022, 45.011]"] ;
781 -> 782 ;
783 [label="X[34] <= 94.988\ngini = 0.043\nsamples = 3\nvalue = [1.011, 45.011]"] ;
782 -> 783 ;
784 [label="gini = 0.0\nsamples = 2\nvalue = [1.011, 0.0]"] ;
783 -> 784 ;
785 [label="gini = 0.0\nsamples = 1\nvalue = [0.0, 45.011]"] ;
783 -> 785 ;
786 [label="gini = 0.0\nsamples = 2\nvalue = [1.011, 0.0]"] ;
782 -> 786 ;
787 [label="gini = 0.0\nsamples = 1\nvalue = [0.506, 0.0]"] ;
781 -> 787 ;
788 [label="gini = 0.0\nsamples = 2\nvalue = [1.011, 0.0]"] ;
778 -> 788 ;
789 [label="X[36] <= 0.714\ngini = 0.008\nsamples = 15\nvalue = [2.022, 495.123]"] ;
749 -> 789 ;
790 [label="X[12] <= 0.609\ngini = 0.007\nsamples = 13\nvalue = [1.517, 450.112]"] ;
789 -> 790 ;
791 [label="gini = 0.0\nsamples = 3\nvalue = [0.0, 135.034]"] ;
790 -> 791 ;
792 [label="X[31] <= 4.47\ngini = 0.01\nsamples = 10\nvalue = [1.517, 315.078]"] ;
790 -> 792 ;
793 [label="X[22] <= 0.197\ngini = 0.013\nsamples = 8\nvalue = [1.517, 225.056]"] ;
792 -> 793 ;
794 [label="gini = 0.0\nsamples = 1\nvalue = [0.506, 0.0]"] ;
793 -> 794 ;
795 [label="X[26] <= 0.93\ngini = 0.009\nsamples = 7\nvalue = [1.011, 225.056]"] ;
793 -> 795 ;
796 [label="X[35] <= 17.335\ngini = 0.022\nsamples = 2\nvalue = [0.506, 45.011]"] ;
795 -> 796 ;
797 [label="gini = 0.0\nsamples = 1\nvalue = [0.0, 45.011]"] ;
796 -> 797 ;
798 [label="gini = 0.0\nsamples = 1\nvalue = [0.506, 0.0]"] ;
796 -> 798 ;
799 [label="X[25] <= 19.743\ngini = 0.006\nsamples = 5\nvalue = [0.506, 180.045]"] ;
795 -> 799 ;
800 [label="gini = 0.0\nsamples = 2\nvalue = [0.0, 90.022]"] ;
799 -> 800 ;
801 [label="X[31] <= 1.57\ngini = 0.011\nsamples = 3\nvalue = [0.506, 90.022]"] ;
799 -> 801 ;
802 [label="gini = 0.0\nsamples = 1\nvalue = [0.506, 0.0]"] ;
801 -> 802 ;
803 [label="gini = 0.0\nsamples = 2\nvalue = [0.0, 90.022]"] ;
801 -> 803 ;
804 [label="gini = 0.0\nsamples = 2\nvalue = [0.0, 90.022]"] ;
792 -> 804 ;
805 [label="X[36] <= 0.896\ngini = 0.022\nsamples = 2\nvalue = [0.506, 45.011]"] ;
789 -> 805 ;
806 [label="gini = 0.0\nsamples = 1\nvalue = [0.506, 0.0]"] ;
805 -> 806 ;
807 [label="gini = 0.0\nsamples = 1\nvalue = [0.0, 45.011]"] ;
805 -> 807 ;
808 [label="gini = -0.0\nsamples = 11\nvalue = [5.562, 0.0]"] ;
748 -> 808 ;
809 [label="X[24] <= 7620.465\ngini = 0.097\nsamples = 202\nvalue = [84.438, 1575.391]"] ;
93 -> 809 ;
810 [label="X[35] <= 42.411\ngini = 0.092\nsamples = 193\nvalue = [79.887, 1575.391]"] ;
809 -> 810 ;
811 [label="X[29] <= 85.606\ngini = 0.09\nsamples = 190\nvalue = [78.371, 1575.391]"] ;
810 -> 811 ;
812 [label="X[35] <= 16.022\ngini = 0.064\nsamples = 141\nvalue = [53.595, 1575.391]"] ;
811 -> 812 ;
813 [label="X[17] <= 0.622\ngini = 0.056\nsamples = 128\nvalue = [47.022, 1575.391]"] ;
812 -> 813 ;
814 [label="X[32] <= 0.723\ngini = 0.056\nsamples = 127\nvalue = [46.517, 1575.391]"] ;
813 -> 814 ;
815 [label="X[30] <= 24.712\ngini = 0.192\nsamples = 47\nvalue = [21.742, 180.045]"] ;
814 -> 815 ;
816 [label="X[21] <= 0.142\ngini = 0.147\nsamples = 35\nvalue = [15.674, 180.045]"] ;
815 -> 816 ;
817 [label="X[34] <= 955.107\ngini = 0.105\nsamples = 25\nvalue = [10.618, 180.045]"] ;
816 -> 817 ;
818 [label="X[29] <= 34.969\ngini = 0.101\nsamples = 24\nvalue = [10.112, 180.045]"] ;
817 -> 818 ;
819 [label="X[27] <= 12.998\ngini = 0.095\nsamples = 17\nvalue = [7.079, 135.034]"] ;
818 -> 819 ;
820 [label="X[25] <= 82.32\ngini = 0.082\nsamples = 15\nvalue = [6.067, 135.034]"] ;
819 -> 820 ;
821 [label="X[35] <= 10.517\ngini = 0.101\nsamples = 12\nvalue = [5.056, 90.022]"] ;
820 -> 821 ;
822 [label="X[12] <= 0.576\ngini = 0.092\nsamples = 11\nvalue = [4.551, 90.022]"] ;
821 -> 822 ;
823 [label="gini = 0.0\nsamples = 2\nvalue = [1.011, 0.0]"] ;
822 -> 823 ;
824 [label="X[27] <= 10.541\ngini = 0.073\nsamples = 9\nvalue = [3.539, 90.022]"] ;
822 -> 824 ;
825 [label="X[35] <= 4.42\ngini = 0.063\nsamples = 8\nvalue = [3.034, 90.022]"] ;
824 -> 825 ;
826 [label="X[27] <= 9.0\ngini = 0.033\nsamples = 5\nvalue = [1.517, 90.022]"] ;
825 -> 826 ;
827 [label="X[30] <= 10.593\ngini = 0.063\nsamples = 4\nvalue = [1.517, 45.011]"] ;
826 -> 827 ;
828 [label="gini = 0.0\nsamples = 2\nvalue = [1.011, 0.0]"] ;
827 -> 828 ;
829 [label="X[37] <= 0.0\ngini = 0.022\nsamples = 2\nvalue = [0.506, 45.011]"] ;
827 -> 829 ;
830 [label="gini = 0.0\nsamples = 1\nvalue = [0.0, 45.011]"] ;
829 -> 830 ;
831 [label="gini = 0.0\nsamples = 1\nvalue = [0.506, 0.0]"] ;
829 -> 831 ;
832 [label="gini = 0.0\nsamples = 1\nvalue = [0.0, 45.011]"] ;
826 -> 832 ;
833 [label="gini = -0.0\nsamples = 3\nvalue = [1.517, 0.0]"] ;
825 -> 833 ;
834 [label="gini = -0.0\nsamples = 1\nvalue = [0.506, 0.0]"] ;
824 -> 834 ;
835 [label="gini = -0.0\nsamples = 1\nvalue = [0.506, 0.0]"] ;
821 -> 835 ;
836 [label="X[37] <= 0.003\ngini = 0.043\nsamples = 3\nvalue = [1.011, 45.011]"] ;
820 -> 836 ;
837 [label="gini = 0.0\nsamples = 2\nvalue = [1.011, 0.0]"] ;
836 -> 837 ;
838 [label="gini = 0.0\nsamples = 1\nvalue = [0.0, 45.011]"] ;
836 -> 838 ;
839 [label="gini = -0.0\nsamples = 2\nvalue = [1.011, 0.0]"] ;
819 -> 839 ;
840 [label="X[34] <= 241.538\ngini = 0.118\nsamples = 7\nvalue = [3.034, 45.011]"] ;
818 -> 840 ;
841 [label="gini = -0.0\nsamples = 5\nvalue = [2.528, 0.0]"] ;
840 -> 841 ;
842 [label="X[36] <= 1.311\ngini = 0.022\nsamples = 2\nvalue = [0.506, 45.011]"] ;
840 -> 842 ;
843 [label="gini = 0.0\nsamples = 1\nvalue = [0.506, 0.0]"] ;
842 -> 843 ;
844 [label="gini = 0.0\nsamples = 1\nvalue = [0.0, 45.011]"] ;
842 -> 844 ;
845 [label="gini = -0.0\nsamples = 1\nvalue = [0.506, 0.0]"] ;
817 -> 845 ;
846 [label="gini = -0.0\nsamples = 10\nvalue = [5.056, 0.0]"] ;
816 -> 846 ;
847 [label="gini = -0.0\nsamples = 12\nvalue = [6.067, 0.0]"] ;
815 -> 847 ;
848 [label="X[23] <= 151582.657\ngini = 0.034\nsamples = 80\nvalue = [24.775, 1395.346]"] ;
814 -> 848 ;
849 [label="X[36] <= 1.375\ngini = 0.045\nsamples = 68\nvalue = [23.258, 990.246]"] ;
848 -> 849 ;
850 [label="X[33] <= 0.552\ngini = 0.044\nsamples = 67\nvalue = [22.753, 990.246]"] ;
849 -> 850 ;
851 [label="X[35] <= 13.466\ngini = 0.041\nsamples = 64\nvalue = [21.236, 990.246]"] ;
850 -> 851 ;
852 [label="X[25] <= 291.477\ngini = 0.04\nsamples = 63\nvalue = [20.73, 990.246]"] ;
851 -> 852 ;
853 [label="X[29] <= 25.654\ngini = 0.036\nsamples = 59\nvalue = [18.708, 990.246]"] ;
852 -> 853 ;
854 [label="X[36] <= 0.483\ngini = 0.013\nsamples = 27\nvalue = [5.056, 765.19]"] ;
853 -> 854 ;
855 [label="X[12] <= 0.949\ngini = 0.015\nsamples = 25\nvalue = [5.056, 675.168]"] ;
854 -> 855 ;
856 [label="X[30] <= 10.424\ngini = 0.043\nsamples = 9\nvalue = [3.034, 135.034]"] ;
855 -> 856 ;
857 [label="gini = 0.0\nsamples = 4\nvalue = [2.022, 0.0]"] ;
856 -> 857 ;
858 [label="X[37] <= 0.002\ngini = 0.015\nsamples = 5\nvalue = [1.011, 135.034]"] ;
856 -> 858 ;
859 [label="gini = 0.0\nsamples = 1\nvalue = [0.506, 0.0]"] ;
858 -> 859 ;
860 [label="X[28] <= 8.357\ngini = 0.007\nsamples = 4\nvalue = [0.506, 135.034]"] ;
858 -> 860 ;
861 [label="gini = 0.0\nsamples = 3\nvalue = [0.0, 135.034]"] ;
860 -> 861 ;
862 [label="gini = -0.0\nsamples = 1\nvalue = [0.506, 0.0]"] ;
860 -> 862 ;
863 [label="X[26] <= 4.795\ngini = 0.007\nsamples = 16\nvalue = [2.022, 540.134]"] ;
855 -> 863 ;
864 [label="X[27] <= 8.877\ngini = 0.004\nsamples = 12\nvalue = [1.011, 450.112]"] ;
863 -> 864 ;
865 [label="gini = 0.0\nsamples = 6\nvalue = [0.0, 270.067]"] ;
864 -> 865 ;
866 [label="X[35] <= 6.236\ngini = 0.011\nsamples = 6\nvalue = [1.011, 180.045]"] ;
864 -> 866 ;
867 [label="X[27] <= 12.402\ngini = 0.006\nsamples = 5\nvalue = [0.506, 180.045]"] ;
866 -> 867 ;
868 [label="gini = 0.0\nsamples = 4\nvalue = [0.0, 180.045]"] ;
867 -> 868 ;
869 [label="gini = -0.0\nsamples = 1\nvalue = [0.506, 0.0]"] ;
867 -> 869 ;
870 [label="gini = -0.0\nsamples = 1\nvalue = [0.506, 0.0]"] ;
866 -> 870 ;
871 [label="X[36] <= 0.238\ngini = 0.022\nsamples = 4\nvalue = [1.011, 90.022]"] ;
863 -> 871 ;
872 [label="gini = 0.0\nsamples = 1\nvalue = [0.506, 0.0]"] ;
871 -> 872 ;
873 [label="X[37] <= 0.003\ngini = 0.011\nsamples = 3\nvalue = [0.506, 90.022]"] ;
871 -> 873 ;
874 [label="gini = 0.0\nsamples = 2\nvalue = [0.0, 90.022]"] ;
873 -> 874 ;
875 [label="gini = -0.0\nsamples = 1\nvalue = [0.506, 0.0]"] ;
873 -> 875 ;
876 [label="gini = 0.0\nsamples = 2\nvalue = [0.0, 90.022]"] ;
854 -> 876 ;
877 [label="X[27] <= 29.149\ngini = 0.108\nsamples = 32\nvalue = [13.652, 225.056]"] ;
853 -> 877 ;
878 [label="X[23] <= 60382.167\ngini = 0.104\nsamples = 31\nvalue = [13.146, 225.056]"] ;
877 -> 878 ;
879 [label="X[24] <= 446.617\ngini = 0.222\nsamples = 14\nvalue = [6.573, 45.011]"] ;
878 -> 879 ;
880 [label="gini = 0.0\nsamples = 1\nvalue = [0.506, 0.0]"] ;
879 -> 880 ;
881 [label="X[30] <= 29.809\ngini = 0.209\nsamples = 13\nvalue = [6.067, 45.011]"] ;
879 -> 881 ;
882 [label="gini = 0.0\nsamples = 5\nvalue = [2.528, 0.0]"] ;
881 -> 882 ;
883 [label="X[22] <= 0.734\ngini = 0.135\nsamples = 8\nvalue = [3.539, 45.011]"] ;
881 -> 883 ;
884 [label="X[37] <= 0.003\ngini = 0.043\nsamples = 3\nvalue = [1.011, 45.011]"] ;
883 -> 884 ;
885 [label="gini = 0.0\nsamples = 1\nvalue = [0.0, 45.011]"] ;
884 -> 885 ;
886 [label="gini = 0.0\nsamples = 2\nvalue = [1.011, 0.0]"] ;
884 -> 886 ;
887 [label="gini = 0.0\nsamples = 5\nvalue = [2.528, 0.0]"] ;
883 -> 887 ;
888 [label="X[31] <= 7.986\ngini = 0.068\nsamples = 17\nvalue = [6.573, 180.045]"] ;
878 -> 888 ;
889 [label="gini = 0.0\nsamples = 2\nvalue = [1.011, 0.0]"] ;
888 -> 889 ;
890 [label="X[30] <= 20.387\ngini = 0.058\nsamples = 15\nvalue = [5.562, 180.045]"] ;
888 -> 890 ;
891 [label="gini = 0.0\nsamples = 1\nvalue = [0.506, 0.0]"] ;
890 -> 891 ;
892 [label="X[26] <= 4.213\ngini = 0.053\nsamples = 14\nvalue = [5.056, 180.045]"] ;
890 -> 892 ;
893 [label="X[31] <= 14.173\ngini = 0.118\nsamples = 7\nvalue = [3.034, 45.011]"] ;
892 -> 893 ;
894 [label="X[29] <= 44.27\ngini = 0.022\nsamples = 2\nvalue = [0.506, 45.011]"] ;
893 -> 894 ;
895 [label="gini = 0.0\nsamples = 1\nvalue = [0.506, 0.0]"] ;
894 -> 895 ;
896 [label="gini = 0.0\nsamples = 1\nvalue = [0.0, 45.011]"] ;
894 -> 896 ;
897 [label="gini = -0.0\nsamples = 5\nvalue = [2.528, 0.0]"] ;
893 -> 897 ;
898 [label="X[21] <= 0.31\ngini = 0.029\nsamples = 7\nvalue = [2.022, 135.034]"] ;
892 -> 898 ;
899 [label="X[26] <= 6.98\ngini = 0.022\nsamples = 6\nvalue = [1.517, 135.034]"] ;
898 -> 899 ;
900 [label="X[25] <= 152.756\ngini = 0.063\nsamples = 4\nvalue = [1.517, 45.011]"] ;
899 -> 900 ;
901 [label="gini = 0.0\nsamples = 2\nvalue = [1.011, 0.0]"] ;
900 -> 901 ;
902 [label="X[23] <= 92062.221\ngini = 0.022\nsamples = 2\nvalue = [0.506, 45.011]"] ;
900 -> 902 ;
903 [label="gini = 0.0\nsamples = 1\nvalue = [0.506, 0.0]"] ;
902 -> 903 ;
904 [label="gini = 0.0\nsamples = 1\nvalue = [0.0, 45.011]"] ;
902 -> 904 ;
905 [label="gini = 0.0\nsamples = 2\nvalue = [0.0, 90.022]"] ;
899 -> 905 ;
906 [label="gini = -0.0\nsamples = 1\nvalue = [0.506, 0.0]"] ;
898 -> 906 ;
907 [label="gini = -0.0\nsamples = 1\nvalue = [0.506, 0.0]"] ;
877 -> 907 ;
908 [label="gini = -0.0\nsamples = 4\nvalue = [2.022, 0.0]"] ;
852 -> 908 ;
909 [label="gini = -0.0\nsamples = 1\nvalue = [0.506, 0.0]"] ;
851 -> 909 ;
910 [label="gini = -0.0\nsamples = 3\nvalue = [1.517, 0.0]"] ;
850 -> 910 ;
911 [label="gini = -0.0\nsamples = 1\nvalue = [0.506, 0.0]"] ;
849 -> 911 ;
912 [label="X[28] <= 25.096\ngini = 0.007\nsamples = 12\nvalue = [1.517, 405.101]"] ;
848 -> 912 ;
913 [label="X[26] <= 2.252\ngini = 0.008\nsamples = 11\nvalue = [1.517, 360.089]"] ;
912 -> 913 ;
914 [label="gini = 0.0\nsamples = 1\nvalue = [0.0, 45.011]"] ;
913 -> 914 ;
915 [label="X[30] <= 26.492\ngini = 0.01\nsamples = 10\nvalue = [1.517, 315.078]"] ;
913 -> 915 ;
916 [label="X[37] <= 0.0\ngini = 0.006\nsamples = 5\nvalue = [0.506, 180.045]"] ;
915 -> 916 ;
917 [label="X[27] <= 8.708\ngini = 0.011\nsamples = 3\nvalue = [0.506, 90.022]"] ;
916 -> 917 ;
918 [label="gini = 0.0\nsamples = 1\nvalue = [0.506, 0.0]"] ;
917 -> 918 ;
919 [label="gini = 0.0\nsamples = 2\nvalue = [0.0, 90.022]"] ;
917 -> 919 ;
920 [label="gini = 0.0\nsamples = 2\nvalue = [0.0, 90.022]"] ;
916 -> 920 ;
921 [label="X[27] <= 32.576\ngini = 0.015\nsamples = 5\nvalue = [1.011, 135.034]"] ;
915 -> 921 ;
922 [label="X[25] <= 254.589\ngini = 0.043\nsamples = 3\nvalue = [1.011, 45.011]"] ;
921 -> 922 ;
923 [label="X[23] <= 178163.858\ngini = 0.022\nsamples = 2\nvalue = [0.506, 45.011]"] ;
922 -> 923 ;
924 [label="gini = 0.0\nsamples = 1\nvalue = [0.506, 0.0]"] ;
923 -> 924 ;
925 [label="gini = 0.0\nsamples = 1\nvalue = [0.0, 45.011]"] ;
923 -> 925 ;
926 [label="gini = 0.0\nsamples = 1\nvalue = [0.506, 0.0]"] ;
922 -> 926 ;
927 [label="gini = 0.0\nsamples = 2\nvalue = [0.0, 90.022]"] ;
921 -> 927 ;
928 [label="gini = 0.0\nsamples = 1\nvalue = [0.0, 45.011]"] ;
912 -> 928 ;
929 [label="gini = -0.0\nsamples = 1\nvalue = [0.506, 0.0]"] ;
813 -> 929 ;
930 [label="gini = -0.0\nsamples = 13\nvalue = [6.573, 0.0]"] ;
812 -> 930 ;
931 [label="gini = -0.0\nsamples = 49\nvalue = [24.775, 0.0]"] ;
811 -> 931 ;
932 [label="gini = 0.0\nsamples = 3\nvalue = [1.517, 0.0]"] ;
810 -> 932 ;
933 [label="gini = 0.0\nsamples = 9\nvalue = [4.551, 0.0]"] ;
809 -> 933 ;
934 [label="X[13] <= 0.368\ngini = 0.5\nsamples = 31217\nvalue = [15603.833, 16023.977]"] ;
4 -> 934 ;
935 [label="X[5] <= 0.247\ngini = 0.074\nsamples = 610\nvalue = [240.673, 6031.497]"] ;
934 -> 935 ;
936 [label="X[7] <= 0.625\ngini = 0.422\nsamples = 119\nvalue = [58.652, 135.034]"] ;
935 -> 936 ;
937 [label="gini = 0.0\nsamples = 23\nvalue = [11.629, 0.0]"] ;
936 -> 937 ;
938 [label="X[27] <= 20.628\ngini = 0.383\nsamples = 96\nvalue = [47.022, 135.034]"] ;
936 -> 938 ;
939 [label="X[28] <= 0.081\ngini = 0.377\nsamples = 93\nvalue = [45.505, 135.034]"] ;
938 -> 939 ;
940 [label="X[36] <= 0.206\ngini = 0.481\nsamples = 61\nvalue = [30.337, 45.011]"] ;
939 -> 940 ;
941 [label="X[37] <= 0.0\ngini = 0.357\nsamples = 28\nvalue = [13.652, 45.011]"] ;
940 -> 941 ;
942 [label="gini = -0.0\nsamples = 15\nvalue = [7.584, 0.0]"] ;
941 -> 942 ;
943 [label="X[37] <= 0.0\ngini = 0.209\nsamples = 13\nvalue = [6.067, 45.011]"] ;
941 -> 943 ;
944 [label="gini = 0.0\nsamples = 10\nvalue = [5.056, 0.0]"] ;
943 -> 944 ;
945 [label="X[31] <= 1.281\ngini = 0.043\nsamples = 3\nvalue = [1.011, 45.011]"] ;
943 -> 945 ;
946 [label="X[37] <= 0.0\ngini = 0.022\nsamples = 2\nvalue = [0.506, 45.011]"] ;
945 -> 946 ;
947 [label="gini = 0.0\nsamples = 1\nvalue = [0.506, 0.0]"] ;
946 -> 947 ;
948 [label="gini = 0.0\nsamples = 1\nvalue = [0.0, 45.011]"] ;
946 -> 948 ;
949 [label="gini = 0.0\nsamples = 1\nvalue = [0.506, 0.0]"] ;
945 -> 949 ;
950 [label="gini = -0.0\nsamples = 33\nvalue = [16.685, 0.0]"] ;
940 -> 950 ;
951 [label="X[31] <= 16.057\ngini = 0.247\nsamples = 32\nvalue = [15.168, 90.022]"] ;
939 -> 951 ;
952 [label="X[34] <= 1043.262\ngini = 0.342\nsamples = 26\nvalue = [12.64, 45.011]"] ;
951 -> 952 ;
953 [label="gini = 0.0\nsamples = 20\nvalue = [10.112, 0.0]"] ;
952 -> 953 ;
954 [label="X[29] <= 12.929\ngini = 0.101\nsamples = 6\nvalue = [2.528, 45.011]"] ;
952 -> 954 ;
955 [label="X[25] <= 32.08\ngini = 0.022\nsamples = 2\nvalue = [0.506, 45.011]"] ;
954 -> 955 ;
956 [label="gini = 0.0\nsamples = 1\nvalue = [0.0, 45.011]"] ;
955 -> 956 ;
957 [label="gini = 0.0\nsamples = 1\nvalue = [0.506, 0.0]"] ;
955 -> 957 ;
958 [label="gini = 0.0\nsamples = 4\nvalue = [2.022, 0.0]"] ;
954 -> 958 ;
959 [label="X[30] <= 35.546\ngini = 0.101\nsamples = 6\nvalue = [2.528, 45.011]"] ;
951 -> 959 ;
960 [label="X[28] <= 7.507\ngini = 0.043\nsamples = 3\nvalue = [1.011, 45.011]"] ;
959 -> 960 ;
961 [label="gini = 0.0\nsamples = 1\nvalue = [0.0, 45.011]"] ;
960 -> 961 ;
962 [label="gini = 0.0\nsamples = 2\nvalue = [1.011, 0.0]"] ;
960 -> 962 ;
963 [label="gini = -0.0\nsamples = 3\nvalue = [1.517, 0.0]"] ;
959 -> 963 ;
964 [label="gini = -0.0\nsamples = 3\nvalue = [1.517, 0.0]"] ;
938 -> 964 ;
965 [label="X[27] <= 2.44\ngini = 0.058\nsamples = 491\nvalue = [182.022, 5896.463]"] ;
935 -> 965 ;
966 [label="X[36] <= 0.597\ngini = 0.087\nsamples = 388\nvalue = [158.764, 3330.827]"] ;
965 -> 966 ;
967 [label="X[28] <= 3.39\ngini = 0.086\nsamples = 384\nvalue = [156.741, 3330.827]"] ;
966 -> 967 ;
968 [label="X[27] <= 0.738\ngini = 0.102\nsamples = 353\nvalue = [149.157, 2610.648]"] ;
967 -> 968 ;
969 [label="X[30] <= 8.276\ngini = 0.186\nsamples = 260\nvalue = [119.831, 1035.257]"] ;
968 -> 969 ;
970 [label="X[23] <= 105432.668\ngini = 0.183\nsamples = 256\nvalue = [117.809, 1035.257]"] ;
969 -> 970 ;
971 [label="X[28] <= 0.711\ngini = 0.182\nsamples = 254\nvalue = [116.797, 1035.257]"] ;
970 -> 971 ;
972 [label="X[31] <= 2.488\ngini = 0.403\nsamples = 214\nvalue = [105.168, 270.067]"] ;
971 -> 972 ;
973 [label="X[12] <= 0.837\ngini = 0.425\nsamples = 202\nvalue = [99.606, 225.056]"] ;
972 -> 973 ;
974 [label="X[37] <= 0.0\ngini = 0.497\nsamples = 77\nvalue = [38.427, 45.011]"] ;
973 -> 974 ;
975 [label="gini = 0.0\nsamples = 40\nvalue = [20.225, 0.0]"] ;
974 -> 975 ;
976 [label="X[21] <= 0.165\ngini = 0.41\nsamples = 37\nvalue = [18.202, 45.011]"] ;
974 -> 976 ;
977 [label="gini = 0.0\nsamples = 19\nvalue = [9.607, 0.0]"] ;
976 -> 977 ;
978 [label="X[23] <= 35538.202\ngini = 0.269\nsamples = 18\nvalue = [8.595, 45.011]"] ;
976 -> 978 ;
979 [label="X[34] <= 41.523\ngini = 0.258\nsamples = 17\nvalue = [8.09, 45.011]"] ;
978 -> 979 ;
980 [label="X[37] <= 0.001\ngini = 0.151\nsamples = 9\nvalue = [4.045, 45.011]"] ;
979 -> 980 ;
981 [label="gini = -0.0\nsamples = 6\nvalue = [3.034, 0.0]"] ;
980 -> 981 ;
982 [label="X[24] <= 8.921\ngini = 0.043\nsamples = 3\nvalue = [1.011, 45.011]"] ;
980 -> 982 ;
983 [label="gini = 0.0\nsamples = 1\nvalue = [0.506, 0.0]"] ;
982 -> 983 ;
984 [label="X[36] <= 0.037\ngini = 0.022\nsamples = 2\nvalue = [0.506, 45.011]"] ;
982 -> 984 ;
985 [label="gini = 0.0\nsamples = 1\nvalue = [0.0, 45.011]"] ;
984 -> 985 ;
986 [label="gini = 0.0\nsamples = 1\nvalue = [0.506, 0.0]"] ;
984 -> 986 ;
987 [label="gini = 0.0\nsamples = 8\nvalue = [4.045, 0.0]"] ;
979 -> 987 ;
988 [label="gini = 0.0\nsamples = 1\nvalue = [0.506, 0.0]"] ;
978 -> 988 ;
989 [label="X[32] <= 2.261\ngini = 0.379\nsamples = 125\nvalue = [61.18, 180.045]"] ;
973 -> 989 ;
990 [label="X[31] <= 1.267\ngini = 0.429\nsamples = 124\nvalue = [61.18, 135.034]"] ;
989 -> 990 ;
991 [label="X[21] <= 0.464\ngini = 0.468\nsamples = 108\nvalue = [53.595, 90.022]"] ;
990 -> 991 ;
992 [label="X[30] <= 4.92\ngini = 0.499\nsamples = 83\nvalue = [41.461, 45.011]"] ;
991 -> 992 ;
993 [label="X[25] <= 4.835\ngini = 0.499\nsamples = 82\nvalue = [40.955, 45.011]"] ;
992 -> 993 ;
994 [label="gini = -0.0\nsamples = 63\nvalue = [31.854, 0.0]"] ;
993 -> 994 ;
995 [label="X[37] <= 0.001\ngini = 0.28\nsamples = 19\nvalue = [9.101, 45.011]"] ;
993 -> 995 ;
996 [label="gini = -0.0\nsamples = 10\nvalue = [5.056, 0.0]"] ;
995 -> 996 ;
997 [label="X[23] <= 6605.973\ngini = 0.151\nsamples = 9\nvalue = [4.045, 45.011]"] ;
995 -> 997 ;
998 [label="gini = 0.0\nsamples = 8\nvalue = [4.045, 0.0]"] ;
997 -> 998 ;
999 [label="gini = 0.0\nsamples = 1\nvalue = [0.0, 45.011]"] ;
997 -> 999 ;
1000 [label="gini = -0.0\nsamples = 1\nvalue = [0.506, 0.0]"] ;
992 -> 1000 ;
1001 [label="X[23] <= 17178.476\ngini = 0.335\nsamples = 25\nvalue = [12.135, 45.011]"] ;
991 -> 1001 ;
1002 [label="X[36] <= 0.034\ngini = 0.3\nsamples = 21\nvalue = [10.112, 45.011]"] ;
1001 -> 1002 ;
1003 [label="X[35] <= 0.065\ngini = 0.247\nsamples = 16\nvalue = [7.584, 45.011]"] ;
1002 -> 1003 ;
1004 [label="X[34] <= 50.968\ngini = 0.151\nsamples = 9\nvalue = [4.045, 45.011]"] ;
1003 -> 1004 ;
1005 [label="gini = -0.0\nsamples = 6\nvalue = [3.034, 0.0]"] ;
1004 -> 1005 ;
1006 [label="X[37] <= 0.0\ngini = 0.043\nsamples = 3\nvalue = [1.011, 45.011]"] ;
1004 -> 1006 ;
1007 [label="gini = 0.0\nsamples = 2\nvalue = [1.011, 0.0]"] ;
1006 -> 1007 ;
1008 [label="gini = 0.0\nsamples = 1\nvalue = [0.0, 45.011]"] ;
1006 -> 1008 ;
1009 [label="gini = 0.0\nsamples = 7\nvalue = [3.539, 0.0]"] ;
1003 -> 1009 ;
1010 [label="gini = 0.0\nsamples = 5\nvalue = [2.528, 0.0]"] ;
1002 -> 1010 ;
1011 [label="gini = 0.0\nsamples = 4\nvalue = [2.022, 0.0]"] ;
1001 -> 1011 ;
1012 [label="X[23] <= 32006.784\ngini = 0.247\nsamples = 16\nvalue = [7.584, 45.011]"] ;
990 -> 1012 ;
1013 [label="X[30] <= 1.338\ngini = 0.151\nsamples = 9\nvalue = [4.045, 45.011]"] ;
1012 -> 1013 ;
1014 [label="X[25] <= 5.58\ngini = 0.082\nsamples = 5\nvalue = [2.022, 45.011]"] ;
1013 -> 1014 ;
1015 [label="gini = 0.0\nsamples = 2\nvalue = [1.011, 0.0]"] ;
1014 -> 1015 ;
1016 [label="X[32] <= 1.0\ngini = 0.043\nsamples = 3\nvalue = [1.011, 45.011]"] ;
1014 -> 1016 ;
1017 [label="gini = 0.0\nsamples = 2\nvalue = [1.011, 0.0]"] ;
1016 -> 1017 ;
1018 [label="gini = 0.0\nsamples = 1\nvalue = [0.0, 45.011]"] ;
1016 -> 1018 ;
1019 [label="gini = 0.0\nsamples = 4\nvalue = [2.022, 0.0]"] ;
1013 -> 1019 ;
1020 [label="gini = 0.0\nsamples = 7\nvalue = [3.539, 0.0]"] ;
1012 -> 1020 ;
1021 [label="gini = 0.0\nsamples = 1\nvalue = [0.0, 45.011]"] ;
989 -> 1021 ;
1022 [label="X[14] <= 0.813\ngini = 0.196\nsamples = 12\nvalue = [5.562, 45.011]"] ;
972 -> 1022 ;
1023 [label="X[34] <= 60.658\ngini = 0.063\nsamples = 4\nvalue = [1.517, 45.011]"] ;
1022 -> 1023 ;
1024 [label="gini = 0.0\nsamples = 2\nvalue = [1.011, 0.0]"] ;
1023 -> 1024 ;
1025 [label="X[37] <= 0.001\ngini = 0.022\nsamples = 2\nvalue = [0.506, 45.011]"] ;
1023 -> 1025 ;
1026 [label="gini = 0.0\nsamples = 1\nvalue = [0.506, 0.0]"] ;
1025 -> 1026 ;
1027 [label="gini = 0.0\nsamples = 1\nvalue = [0.0, 45.011]"] ;
1025 -> 1027 ;
1028 [label="gini = 0.0\nsamples = 8\nvalue = [4.045, 0.0]"] ;
1022 -> 1028 ;
1029 [label="X[34] <= 302.45\ngini = 0.029\nsamples = 40\nvalue = [11.629, 765.19]"] ;
971 -> 1029 ;
1030 [label="X[29] <= 2.042\ngini = 0.028\nsamples = 39\nvalue = [11.124, 765.19]"] ;
1029 -> 1030 ;
1031 [label="X[31] <= 0.833\ngini = 0.016\nsamples = 19\nvalue = [4.045, 495.123]"] ;
1030 -> 1031 ;
1032 [label="gini = 0.0\nsamples = 6\nvalue = [0.0, 270.067]"] ;
1031 -> 1032 ;
1033 [label="X[14] <= 0.752\ngini = 0.035\nsamples = 13\nvalue = [4.045, 225.056]"] ;
1031 -> 1033 ;
1034 [label="X[23] <= 15522.181\ngini = 0.022\nsamples = 2\nvalue = [0.506, 45.011]"] ;
1033 -> 1034 ;
1035 [label="gini = 0.0\nsamples = 1\nvalue = [0.0, 45.011]"] ;
1034 -> 1035 ;
1036 [label="gini = 0.0\nsamples = 1\nvalue = [0.506, 0.0]"] ;
1034 -> 1036 ;
1037 [label="X[32] <= 1.411\ngini = 0.038\nsamples = 11\nvalue = [3.539, 180.045]"] ;
1033 -> 1037 ;
1038 [label="X[22] <= 0.362\ngini = 0.063\nsamples = 4\nvalue = [1.517, 45.011]"] ;
1037 -> 1038 ;
1039 [label="gini = -0.0\nsamples = 3\nvalue = [1.517, 0.0]"] ;
1038 -> 1039 ;
1040 [label="gini = 0.0\nsamples = 1\nvalue = [0.0, 45.011]"] ;
1038 -> 1040 ;
1041 [label="X[30] <= 0.368\ngini = 0.029\nsamples = 7\nvalue = [2.022, 135.034]"] ;
1037 -> 1041 ;
1042 [label="X[24] <= 20.672\ngini = 0.022\nsamples = 2\nvalue = [0.506, 45.011]"] ;
1041 -> 1042 ;
1043 [label="gini = 0.0\nsamples = 1\nvalue = [0.506, 0.0]"] ;
1042 -> 1043 ;
1044 [label="gini = 0.0\nsamples = 1\nvalue = [0.0, 45.011]"] ;
1042 -> 1044 ;
1045 [label="X[23] <= 14424.539\ngini = 0.033\nsamples = 5\nvalue = [1.517, 90.022]"] ;
1041 -> 1045 ;
1046 [label="gini = 0.0\nsamples = 2\nvalue = [1.011, 0.0]"] ;
1045 -> 1046 ;
1047 [label="X[24] <= 82.831\ngini = 0.011\nsamples = 3\nvalue = [0.506, 90.022]"] ;
1045 -> 1047 ;
1048 [label="X[37] <= 0.0\ngini = 0.022\nsamples = 2\nvalue = [0.506, 45.011]"] ;
1047 -> 1048 ;
1049 [label="gini = 0.0\nsamples = 1\nvalue = [0.506, 0.0]"] ;
1048 -> 1049 ;
1050 [label="gini = 0.0\nsamples = 1\nvalue = [0.0, 45.011]"] ;
1048 -> 1050 ;
1051 [label="gini = 0.0\nsamples = 1\nvalue = [0.0, 45.011]"] ;
1047 -> 1051 ;
1052 [label="X[35] <= 0.069\ngini = 0.05\nsamples = 20\nvalue = [7.079, 270.067]"] ;
1030 -> 1052 ;
1053 [label="gini = 0.0\nsamples = 5\nvalue = [2.528, 0.0]"] ;
1052 -> 1053 ;
1054 [label="X[25] <= 25.026\ngini = 0.033\nsamples = 15\nvalue = [4.551, 270.067]"] ;
1052 -> 1054 ;
1055 [label="X[31] <= 3.712\ngini = 0.033\nsamples = 10\nvalue = [3.034, 180.045]"] ;
1054 -> 1055 ;
1056 [label="X[35] <= 0.137\ngini = 0.053\nsamples = 7\nvalue = [2.528, 90.022]"] ;
1055 -> 1056 ;
1057 [label="X[29] <= 5.455\ngini = 0.011\nsamples = 3\nvalue = [0.506, 90.022]"] ;
1056 -> 1057 ;
1058 [label="gini = 0.0\nsamples = 2\nvalue = [0.0, 90.022]"] ;
1057 -> 1058 ;
1059 [label="gini = -0.0\nsamples = 1\nvalue = [0.506, 0.0]"] ;
1057 -> 1059 ;
1060 [label="gini = -0.0\nsamples = 4\nvalue = [2.022, 0.0]"] ;
1056 -> 1060 ;
1061 [label="X[24] <= 81.097\ngini = 0.011\nsamples = 3\nvalue = [0.506, 90.022]"] ;
1055 -> 1061 ;
1062 [label="gini = 0.0\nsamples = 2\nvalue = [0.0, 90.022]"] ;
1061 -> 1062 ;
1063 [label="gini = -0.0\nsamples = 1\nvalue = [0.506, 0.0]"] ;
1061 -> 1063 ;
1064 [label="X[14] <= 0.183\ngini = 0.033\nsamples = 5\nvalue = [1.517, 90.022]"] ;
1054 -> 1064 ;
1065 [label="gini = 0.0\nsamples = 2\nvalue = [1.011, 0.0]"] ;
1064 -> 1065 ;
1066 [label="X[31] <= 5.495\ngini = 0.011\nsamples = 3\nvalue = [0.506, 90.022]"] ;
1064 -> 1066 ;
1067 [label="gini = 0.0\nsamples = 1\nvalue = [0.506, 0.0]"] ;
1066 -> 1067 ;
1068 [label="gini = 0.0\nsamples = 2\nvalue = [0.0, 90.022]"] ;
1066 -> 1068 ;
1069 [label="gini = -0.0\nsamples = 1\nvalue = [0.506, 0.0]"] ;
1029 -> 1069 ;
1070 [label="gini = 0.0\nsamples = 2\nvalue = [1.011, 0.0]"] ;
970 -> 1070 ;
1071 [label="gini = 0.0\nsamples = 4\nvalue = [2.022, 0.0]"] ;
969 -> 1071 ;
1072 [label="X[28] <= 0.759\ngini = 0.036\nsamples = 93\nvalue = [29.326, 1575.391]"] ;
968 -> 1072 ;
1073 [label="gini = 0.0\nsamples = 23\nvalue = [11.629, 0.0]"] ;
1072 -> 1073 ;
1074 [label="X[18] <= 0.152\ngini = 0.022\nsamples = 70\nvalue = [17.697, 1575.391]"] ;
1072 -> 1074 ;
1075 [label="X[31] <= 10.491\ngini = 0.021\nsamples = 69\nvalue = [17.191, 1575.391]"] ;
1074 -> 1075 ;
1076 [label="X[32] <= 0.932\ngini = 0.02\nsamples = 67\nvalue = [16.18, 1575.391]"] ;
1075 -> 1076 ;
1077 [label="X[37] <= 0.004\ngini = 0.038\nsamples = 33\nvalue = [10.618, 540.134]"] ;
1076 -> 1077 ;
1078 [label="X[26] <= 1.169\ngini = 0.039\nsamples = 31\nvalue = [10.112, 495.123]"] ;
1077 -> 1078 ;
1079 [label="X[35] <= 0.575\ngini = 0.037\nsamples = 30\nvalue = [9.607, 495.123]"] ;
1078 -> 1079 ;
1080 [label="X[24] <= 195.77\ngini = 0.035\nsamples = 29\nvalue = [9.101, 495.123]"] ;
1079 -> 1080 ;
1081 [label="X[31] <= 3.692\ngini = 0.034\nsamples = 28\nvalue = [8.595, 495.123]"] ;
1080 -> 1081 ;
1082 [label="X[31] <= 0.273\ngini = 0.025\nsamples = 17\nvalue = [4.551, 360.089]"] ;
1081 -> 1082 ;
1083 [label="X[36] <= 0.028\ngini = 0.063\nsamples = 4\nvalue = [1.517, 45.011]"] ;
1082 -> 1083 ;
1084 [label="gini = 0.0\nsamples = 2\nvalue = [1.011, 0.0]"] ;
1083 -> 1084 ;
1085 [label="X[23] <= 75129.8\ngini = 0.022\nsamples = 2\nvalue = [0.506, 45.011]"] ;
1083 -> 1085 ;
1086 [label="gini = 0.0\nsamples = 1\nvalue = [0.0, 45.011]"] ;
1085 -> 1086 ;
1087 [label="gini = 0.0\nsamples = 1\nvalue = [0.506, 0.0]"] ;
1085 -> 1087 ;
1088 [label="X[21] <= 0.445\ngini = 0.019\nsamples = 13\nvalue = [3.034, 315.078]"] ;
1082 -> 1088 ;
1089 [label="X[34] <= 86.295\ngini = 0.013\nsamples = 8\nvalue = [1.517, 225.056]"] ;
1088 -> 1089 ;
1090 [label="X[37] <= 0.0\ngini = 0.017\nsamples = 7\nvalue = [1.517, 180.045]"] ;
1089 -> 1090 ;
1091 [label="gini = 0.0\nsamples = 2\nvalue = [0.0, 90.022]"] ;
1090 -> 1091 ;
1092 [label="X[35] <= 0.087\ngini = 0.033\nsamples = 5\nvalue = [1.517, 90.022]"] ;
1090 -> 1092 ;
1093 [label="gini = 0.0\nsamples = 1\nvalue = [0.506, 0.0]"] ;
1092 -> 1093 ;
1094 [label="X[35] <= 0.153\ngini = 0.022\nsamples = 4\nvalue = [1.011, 90.022]"] ;
1092 -> 1094 ;
1095 [label="gini = 0.0\nsamples = 1\nvalue = [0.506, 0.0]"] ;
1094 -> 1095 ;
1096 [label="X[29] <= 6.779\ngini = 0.011\nsamples = 3\nvalue = [0.506, 90.022]"] ;
1094 -> 1096 ;
1097 [label="X[23] <= 9336.175\ngini = 0.022\nsamples = 2\nvalue = [0.506, 45.011]"] ;
1096 -> 1097 ;
1098 [label="gini = 0.0\nsamples = 1\nvalue = [0.506, 0.0]"] ;
1097 -> 1098 ;
1099 [label="gini = 0.0\nsamples = 1\nvalue = [0.0, 45.011]"] ;
1097 -> 1099 ;
1100 [label="gini = 0.0\nsamples = 1\nvalue = [0.0, 45.011]"] ;
1096 -> 1100 ;
1101 [label="gini = 0.0\nsamples = 1\nvalue = [0.0, 45.011]"] ;
1089 -> 1101 ;
1102 [label="X[24] <= 84.551\ngini = 0.033\nsamples = 5\nvalue = [1.517, 90.022]"] ;
1088 -> 1102 ;
1103 [label="X[12] <= 0.165\ngini = 0.043\nsamples = 3\nvalue = [1.011, 45.011]"] ;
1102 -> 1103 ;
1104 [label="gini = 0.0\nsamples = 1\nvalue = [0.506, 0.0]"] ;
1103 -> 1104 ;
1105 [label="X[37] <= 0.001\ngini = 0.022\nsamples = 2\nvalue = [0.506, 45.011]"] ;
1103 -> 1105 ;
1106 [label="gini = 0.0\nsamples = 1\nvalue = [0.506, 0.0]"] ;
1105 -> 1106 ;
1107 [label="gini = 0.0\nsamples = 1\nvalue = [0.0, 45.011]"] ;
1105 -> 1107 ;
1108 [label="X[34] <= 50.017\ngini = 0.022\nsamples = 2\nvalue = [0.506, 45.011]"] ;
1102 -> 1108 ;
1109 [label="gini = 0.0\nsamples = 1\nvalue = [0.506, 0.0]"] ;
1108 -> 1109 ;
1110 [label="gini = 0.0\nsamples = 1\nvalue = [0.0, 45.011]"] ;
1108 -> 1110 ;
1111 [label="X[30] <= 7.173\ngini = 0.056\nsamples = 11\nvalue = [4.045, 135.034]"] ;
1081 -> 1111 ;
1112 [label="X[35] <= 0.095\ngini = 0.053\nsamples = 7\nvalue = [2.528, 90.022]"] ;
1111 -> 1112 ;
1113 [label="gini = 0.0\nsamples = 3\nvalue = [1.517, 0.0]"] ;
1112 -> 1113 ;
1114 [label="X[30] <= 5.049\ngini = 0.022\nsamples = 4\nvalue = [1.011, 90.022]"] ;
1112 -> 1114 ;
1115 [label="X[23] <= 26596.637\ngini = 0.011\nsamples = 3\nvalue = [0.506, 90.022]"] ;
1114 -> 1115 ;
1116 [label="gini = 0.0\nsamples = 1\nvalue = [0.0, 45.011]"] ;
1115 -> 1116 ;
1117 [label="X[37] <= 0.0\ngini = 0.022\nsamples = 2\nvalue = [0.506, 45.011]"] ;
1115 -> 1117 ;
1118 [label="gini = 0.0\nsamples = 1\nvalue = [0.506, 0.0]"] ;
1117 -> 1118 ;
1119 [label="gini = 0.0\nsamples = 1\nvalue = [0.0, 45.011]"] ;
1117 -> 1119 ;
1120 [label="gini = -0.0\nsamples = 1\nvalue = [0.506, 0.0]"] ;
1114 -> 1120 ;
1121 [label="X[35] <= 0.223\ngini = 0.063\nsamples = 4\nvalue = [1.517, 45.011]"] ;
1111 -> 1121 ;
1122 [label="X[21] <= 0.792\ngini = 0.043\nsamples = 3\nvalue = [1.011, 45.011]"] ;
1121 -> 1122 ;
1123 [label="gini = 0.0\nsamples = 1\nvalue = [0.0, 45.011]"] ;
1122 -> 1123 ;
1124 [label="gini = 0.0\nsamples = 2\nvalue = [1.011, 0.0]"] ;
1122 -> 1124 ;
1125 [label="gini = 0.0\nsamples = 1\nvalue = [0.506, 0.0]"] ;
1121 -> 1125 ;
1126 [label="gini = -0.0\nsamples = 1\nvalue = [0.506, 0.0]"] ;
1080 -> 1126 ;
1127 [label="gini = -0.0\nsamples = 1\nvalue = [0.506, 0.0]"] ;
1079 -> 1127 ;
1128 [label="gini = -0.0\nsamples = 1\nvalue = [0.506, 0.0]"] ;
1078 -> 1128 ;
1129 [label="X[35] <= 1.286\ngini = 0.022\nsamples = 2\nvalue = [0.506, 45.011]"] ;
1077 -> 1129 ;
1130 [label="gini = 0.0\nsamples = 1\nvalue = [0.0, 45.011]"] ;
1129 -> 1130 ;
1131 [label="gini = 0.0\nsamples = 1\nvalue = [0.506, 0.0]"] ;
1129 -> 1131 ;
1132 [label="X[34] <= 310.294\ngini = 0.011\nsamples = 34\nvalue = [5.562, 1035.257]"] ;
1076 -> 1132 ;
1133 [label="X[29] <= 11.612\ngini = 0.012\nsamples = 32\nvalue = [5.562, 945.235]"] ;
1132 -> 1133 ;
1134 [label="X[30] <= 4.845\ngini = 0.011\nsamples = 31\nvalue = [5.056, 945.235]"] ;
1133 -> 1134 ;
1135 [label="X[24] <= 23.919\ngini = 0.01\nsamples = 22\nvalue = [3.539, 675.168]"] ;
1134 -> 1135 ;
1136 [label="X[24] <= 13.739\ngini = 0.022\nsamples = 8\nvalue = [2.022, 180.045]"] ;
1135 -> 1136 ;
1137 [label="X[30] <= 3.426\ngini = 0.029\nsamples = 7\nvalue = [2.022, 135.034]"] ;
1136 -> 1137 ;
1138 [label="X[22] <= 0.798\ngini = 0.022\nsamples = 6\nvalue = [1.517, 135.034]"] ;
1137 -> 1138 ;
1139 [label="X[36] <= 0.038\ngini = 0.011\nsamples = 3\nvalue = [0.506, 90.022]"] ;
1138 -> 1139 ;
1140 [label="gini = 0.0\nsamples = 1\nvalue = [0.0, 45.011]"] ;
1139 -> 1140 ;
1141 [label="X[24] <= 11.776\ngini = 0.022\nsamples = 2\nvalue = [0.506, 45.011]"] ;
1139 -> 1141 ;
1142 [label="gini = 0.0\nsamples = 1\nvalue = [0.506, 0.0]"] ;
1141 -> 1142 ;
1143 [label="gini = 0.0\nsamples = 1\nvalue = [0.0, 45.011]"] ;
1141 -> 1143 ;
1144 [label="X[23] <= 5457.74\ngini = 0.043\nsamples = 3\nvalue = [1.011, 45.011]"] ;
1138 -> 1144 ;
1145 [label="gini = 0.0\nsamples = 1\nvalue = [0.506, 0.0]"] ;
1144 -> 1145 ;
1146 [label="X[37] <= 0.002\ngini = 0.022\nsamples = 2\nvalue = [0.506, 45.011]"] ;
1144 -> 1146 ;
